,BWX,BWZ,CGW,CQQQ,CVY,CWB,CWI,DNL,EEB,EWX,FRN,FXA,FXB,FXC,FXE,FXF,FXY,GCC,GMF,GXC,HGI,PAF,PBS,PCY,PGX,PHB,PIN,PSK,QAI,RFG,RFV,RPG,RPV,RTM,RWK,RWL,RWO,RWX,RYH,RYT,RYU,RZV,SCHA,SCHB,SCHF,SCHG,SCHV,SCHX,SGOL,SHM,SIVR,SPMD,SPTL,TFI,UGA,UNL,USL,XLG,ZROZ
0,-0.14021067185620367,-0.04318733743323343,0.020415290853206997,-0.02789937784107582,-0.011628826507574783,0.025529887445993108,0.0063302289315961355,0.012382306013005044,0.02482451294822825,0.01807239601390579,0.016186638963617443,0.0005953524540906572,0.001995163296062942,0.014909972305503495,0.014229908646031986,-0.00810253666296661,0.336232884851284,-0.0240681650551224,0.010866608341103205,-0.048057014945421674,0.016573841881166916,0.02976309525741377,-0.004278080537128941,0.08793839605033145,0.15094914539900117,0.01690124874259242,0.03631212934211165,0.14682850209440035,-0.04700925374444671,-0.035751903926014204,-0.0023792436823538024,0.0099351656917323,-0.008091904648674198,-0.05070945165688122,-0.024415864334585122,-0.0048936755647239925,0.0399431831240277,0.10477193987539084,0.04273223479266609,-0.025659928579665894,-0.025022810753966732,0.03084569319447342,-0.014533867816499246,0.009365280031746276,-0.02648088807482158,1.5492634232760782e-05,0.021224485927654062,-0.0016675201476551583,0.08235146655029649,0.09454556769264126,-0.07701299122280075,-0.008101632137221948,-0.05308522099688511,0.11825345902267352,-0.00900843100295632,0.043323804912965905,0.04639596943581391,0.024296952280475688,0.0654183941314432
1,-0.1383075071161628,-0.042998786714994276,0.01909464687612843,-0.0274061828345723,-0.011437409295709026,0.025830886550220058,0.005738261950028261,0.0123520468154128,0.024037712420551107,0.018815259510587105,0.014287354081446537,-0.0017313701851759608,0.0017056282768308272,0.012700367180355289,0.01299786976917753,-0.009523911566729234,0.3351265481124359,-0.02348445850637121,0.011810203997915726,-0.0442377515225552,0.01726875742354569,0.03207814816473587,-0.0001478883103354608,0.08699841270219602,0.15025238593356005,0.01747212417349734,0.038897768409815986,0.14631718755625162,-0.04840116508124144,-0.034568047358334714,-0.0018692003687981013,0.0098708068941513,-0.0068540737699962035,-0.05133773309166074,-0.023984458713409654,-0.004719083052701012,0.041963428026308904,0.10585289846151606,0.03768083052676876,-0.025680637515254127,-0.025838943831613326,0.02997479187645601,-0.014444677583329969,0.008547646133390442,-0.026947338000871266,-0.001091556299304959,0.020362526259880435,-0.0023633394222738508,0.07857727974401318,0.09828464768666041,-0.07466173260201917,-0.007734261205863146,-0.052700420945741705,0.12135471037039516,-0.008148641138493378,0.040958780990156,0.04636285027652511,0.02214630214671183,0.06490150673588571
2,-0.14160606204677598,-0.040745871669193336,0.014066213694585135,-0.023339039976330397,-0.01302183687913368,0.022511154906969685,0.004843667817464305,0.011623615589587872,0.024251895092095573,0.01975534724039551,0.016746987344143028,-0.006723654818276511,0.0025162438729227953,0.014104494602521146,0.011716322897597286,-0.008698306836400506,0.3352685801910822,-0.022304746258310613,0.009230123635581842,-0.041898280025715356,0.016496829527168924,0.03090424534993525,0.0032051462921334666,0.08646406198633741,0.1516283993989236,0.01634953319448553,0.03602278680513112,0.14693026866157102,-0.04499651138867841,-0.03529335494985611,-0.002403073105868188,0.010146816256252491,-0.0073490226300717415,-0.05310219282039764,-0.02463230823472117,-0.004021126286140386,0.04322389503166643,0.10752413684720875,0.03886231689608671,-0.02405961979919972,-0.026945166675265194,0.02957131184720066,-0.014054232892165319,0.008761278162996877,-0.027521356488239643,-0.00018239757913423443,0.02045576115655365,-0.001958077748175349,0.08018097849598829,0.09717506116372292,-0.07830855528272912,-0.007835169510175403,-0.057097910356033545,0.1268472233261357,-0.006237329538990865,0.03827532969051641,0.04737354783859488,0.023607062147739666,0.06769456683468182
3,-0.1426068447752849,-0.04173686995764272,0.015947943216166913,-0.023098606897399697,-0.013553072831403676,0.023787091260366277,0.005742566527381156,0.010810577387600497,0.02404636692705779,0.01818903040331233,0.016840467444150593,-0.01011529907694122,0.0017678781857224015,0.014505100233065041,0.013140943418911125,-0.008506479762508493,0.33480109660060214,-0.02063023799571799,0.006887017546396054,-0.043968954696982136,0.018020267600196798,0.028714652013476383,0.0013252428011366747,0.08734738486036286,0.15389403700815227,0.01794295445913607,0.03602861973298139,0.14817715383525734,-0.042830013722127594,-0.03596287503593028,-0.0037765697377639407,0.011718496609894555,-0.008823969659685531,-0.05220361956006562,-0.024838280941953297,-0.002865918826156988,0.041321230066780616,0.10704733975943465,0.045695670872482996,-0.021489203963717805,-0.0337028716111845,0.02559146634798789,-0.01513218349928367,0.00999391598400627,-0.026064997137035004,0.0015263000433994804,0.021969038856563542,-0.0004977170217891629,0.08173312904388656,0.09281933788510352,-0.07851368176924409,-0.008829683459989841,-0.0546359754119708,0.12592975420520006,-0.00591467879865467,0.036997635708716815,0.04715411310350599,0.02564145832714183,0.06724332787489737
4,-0.14188437158161388,-0.042621102890420884,0.014809561869888521,-0.023835275142862825,-0.013371765488451032,0.024155604770447252,0.005284632072500384,0.01119379465024918,0.02416406122532093,0.019224036093862404,0.017948255774920714,-0.011431903809715344,0.0008502848889373582,0.01242620792791646,0.014526175641719603,-0.008764718488700135,0.333422360083183,-0.022184440942412433,0.008810232478437327,-0.04387705622685603,0.0179826674601123,0.02858144396669007,0.001435887371810324,0.08613132057160236,0.15384023439671907,0.017263683942772914,0.038730716890077094,0.14759217892705837,-0.04426143551871066,-0.036223701306908315,-0.0037004193799025508,0.010985132909691608,-0.00897287936302584,-0.05302065077822106,-0.02516433462065573,-0.0028699294091629746,0.04181872754653599,0.10711053367836268,0.044982908373097874,-0.02182974977990343,-0.03181524329928075,0.025843914120240365,-0.01502481054998555,0.010093726410680598,-0.026268136289685516,0.0009469895827934939,0.022588214528000927,-0.0004416385946744879,0.08151050953276401,0.09534105824114471,-0.07760425543681664,-0.008863922311809673,-0.05562331403583246,0.12722257618593988,-0.005723609856058486,0.037373614015170066,0.04744730381668977,0.02591445477099235,0.06782566038533712
5,-0.13984647344362822,-0.042854506116044966,0.014960957819846256,-0.023935390514143038,-0.012993842593672854,0.025180035473132568,0.004914897975968968,0.011208076608098774,0.02300602607433253,0.01852117401506523,0.0174514115375417,-0.0102373236441329,0.001623532720760842,0.0125669932732223,0.014274149227181577,-0.0075640517559629255,0.33297022894020556,-0.022071588345264705,0.00768755697512741,-0.04505418910219805,0.018249770504467314,0.028891014723430693,0.0017528839001529082,0.08748018001031124,0.15425059190344947,0.01824941959401826,0.037561129463461386,0.14791336182907144,-0.045088652181017326,-0.036648826976462934,-0.0035911898322931513,0.010417909738108978,-0.008583939909556606,-0.053735779189956305,-0.025137902294885536,-0.0027063750725203886,0.041674093071819664,0.10630664939824745,0.04608804803127255,-0.022087009008987784,-0.029821061486266284,0.026504280134007106,-0.015009973095411392,0.010110405532663859,-0.02660904023533733,0.0008888827224239387,0.02285496258009026,-0.0004803764553037624,0.08269629264783292,0.09637328098721068,-0.07727727080995483,-0.008905933270455978,-0.05628794947907384,0.12648918882374136,-0.006715027841652654,0.03478456911200402,0.04657891639989247,0.025916109623373533,0.06684669128264886
6,-0.13925227279603947,-0.042310771338651944,0.015097641361471695,-0.024886332410341782,-0.012944227108236653,0.024524132015578872,0.004744842727322801,0.010935495048434359,0.022310285809818104,0.019840514775950814,0.018981485029867164,-0.009240144394512597,0.0023815503281546186,0.011847792426484831,0.014072146578124417,-0.008785650853688164,0.33316074794959843,-0.024464547184882935,0.007060667608236378,-0.04492232392872066,0.017785132376067752,0.028617000027679532,0.001967025910636503,0.08731669696745399,0.1545410920148402,0.017373022898632066,0.03849207021967611,0.1480709779763963,-0.045385096565123025,-0.036283195292034075,-0.0031538114796384525,0.010250263702813433,-0.008533065750444095,-0.05457925200803842,-0.02567889462417491,-0.002716885341917779,0.04241771786770783,0.10690925193846403,0.04474345877954513,-0.022487966172248575,-0.028203025786306835,0.02632192525485939,-0.014954523876098226,0.010051338063723955,-0.026745165217583862,0.00044550088394247145,0.023298684233054284,-0.000404699793933592,0.08216546915907551,0.09516949557754101,-0.07745569897054565,-0.008947763151229006,-0.054939033375870014,0.12693089084107992,-0.005400885464729219,0.03604175116677026,0.04613391031918377,0.026339512919520962,0.06633574212728231
7,-0.1376937795823764,-0.04469610104604009,0.014722817886627756,-0.023603054540292212,-0.013397813576985874,0.023680713971701163,0.004979802831891291,0.010636459824928977,0.02156255732585424,0.01909542679412202,0.018158504594052643,-0.010497954755639844,0.002198580181766805,0.01215150076280751,0.014338598937161665,-0.008559037445313441,0.33229645960467485,-0.021760263496348808,0.006481640832805617,-0.046214120283052315,0.01932764471166618,0.028123153524669316,0.0008346526571015322,0.08694783517065367,0.15549016038800167,0.017338553566133934,0.04077171385604572,0.14867220152360575,-0.04544151198060433,-0.036364037932369565,-0.003053012610270076,0.01032857423464443,-0.009123141571652019,-0.055084034102099576,-0.02476723801307742,-0.0029231972628413435,0.042592586863704214,0.10694325529501292,0.047053602125078434,-0.021996805450547552,-0.029863805091553886,0.02629661981460859,-0.01489356048313497,0.01040343424200659,-0.026225378431658532,0.0007710323763556409,0.02350687091683055,-1.2113163835935057e-05,0.08275865413840386,0.095594824684842,-0.07793047785161764,-0.008780460783340147,-0.05594366367914704,0.1257643858400135,-0.006929787956073396,0.035150549603491,0.04590882371822501,0.026861066983234108,0.06801109130714882
8,-0.1288433461204387,-0.04485305476438122,0.014782262243953589,-0.01982865170780971,-0.01435412910638161,0.022531806207469984,0.004684190328866083,0.009254424013440933,0.021183534160547152,0.018099040648634473,0.01446262815627741,-0.010551073822524674,-0.0008469282649881937,0.013083005119023113,0.018407385520996487,-0.014451999030726878,0.3384514081870483,-0.013701488268646223,0.005256818924760948,-0.04777184400760345,0.022515549379138907,0.02803594317027675,-3.553501309272451e-05,0.09497128625615034,0.1609256188339793,0.01874437455446444,0.03360232444684683,0.15605880314478507,-0.048411636333918644,-0.0336135268444234,-0.0012427445373492684,0.011918219304939916,-0.011466182819944548,-0.05480196523906055,-0.022534181105644775,-0.0035017437658619354,0.044501489904033666,0.11096838352349098,0.05080552110339365,-0.020187551835208137,-0.03400692116754366,0.028397030918846836,-0.01388728354608151,0.00958233431306979,-0.026908045789828017,0.0019002211836856877,0.021464036343683223,-0.0011040351828303413,0.08425737516626468,0.07713479787478496,-0.08427493327708237,-0.00594537764126937,-0.048352734263114656,0.10320546729866673,-0.011288564330044729,0.03134978524320417,0.04936357594125885,0.0254908287931124,0.07137600757670386
9,-0.12639817826783536,-0.04521427911334821,0.014120709469962783,-0.014321883886754807,-0.015067454213758892,0.02312277460039419,0.003938835053133085,0.010802184167070777,0.020875486154578373,0.01750513671696484,0.003481970328922484,-0.018802108756923022,-0.002140403323694276,0.00796058378416151,0.02097886612754949,-0.015946381127366682,0.34507740024684447,-0.012233175031708983,0.006916372268491146,-0.04480685719101749,0.02482170144990072,0.03033584820352631,-0.002046056596898566,0.09603505380433236,0.16388307988965314,0.01874161086481381,0.022695190420597387,0.16043525149312968,-0.04818085759760423,-0.033010142446735447,-0.0017144156963028428,0.013817231904990374,-0.012161475605780857,-0.05625167043652924,-0.02291517631517977,-0.003115399657609167,0.04456639625990463,0.11312950277737653,0.05268761540444991,-0.014139501483429873,-0.03656426736734437,0.029755779773847472,-0.014103971381155956,0.011078703792456651,-0.025809104985719363,0.004499866912051518,0.02249909026257413,0.00022856005224345963,0.08649501581441991,0.05887418332429682,-0.08456398563250032,-0.005004119291279109,-0.04541000333231977,0.0936773940900759,-0.008443541408575759,0.034169983880928276,0.05012953904685195,0.02808405542831139,0.07294343637856737
10,-0.12621717071161812,-0.046597485588703434,0.014242877438522136,-0.01474428737986462,-0.015006235999640122,0.023165523169868144,0.003976325272441781,0.011238573690350738,0.020985023730131742,0.017766109387562536,0.0028672305609741267,-0.020561874224291805,-0.0019417479406978143,0.006285532954277405,0.021443501130190515,-0.016259775513695014,0.3449838382394107,-0.011248913825073106,0.007696424250001132,-0.04375219837809279,0.025261293033476823,0.02998598523374505,-0.0020116749297011912,0.09659684347314562,0.16421599687863278,0.01846627478749465,0.02251933752788412,0.16063929595700913,-0.04845919598025258,-0.033089850188538765,-0.0019436801786369804,0.01389834575427283,-0.012304822706446637,-0.05641973876433536,-0.023233443917176334,-0.0031542155174398207,0.045056214137619795,0.11364014900093047,0.05268880956953377,-0.013705188864163399,-0.03576567332290949,0.030080945873632824,-0.01413481181343413,0.011207911322922023,-0.02570550893316156,0.004640611771609839,0.022744253886113643,0.0003765500358238813,0.08697943610960172,0.05781357949376763,-0.08442939941043064,-0.005141816688456766,-0.04487820836229949,0.09239150714737723,-0.008768690085472288,0.03376535208541779,0.049930594252741,0.02847250922958313,0.07345285283846475
11,-0.12744108529892284,-0.047466402708298785,0.014447835121371976,-0.0152305150331728,-0.014786932306636188,0.024890207917655376,0.0032588082576100606,0.010643971542863551,0.020337371522414983,0.016808610395240696,0.005292809122279292,-0.02304006028875972,-0.0005964299108954777,0.006622238336458328,0.01983281185572059,-0.01669889794194882,0.3453339316528355,-0.011178726243726395,0.005909053896468837,-0.04563493053214059,0.025915532134458533,0.029123414421898114,-0.002964543982328618,0.0973718317674848,0.16383335044362518,0.019307916158325597,0.02575084282449934,0.16045590543156768,-0.0471742384500325,-0.03303179977246244,-0.0028643163595291005,0.014303281130613207,-0.012018863244118863,-0.05534746683736959,-0.02325277891504854,-0.00369517563040814,0.04556083372452896,0.11344262518786623,0.054541644380663536,-0.013662433131052894,-0.03491051145958947,0.03171088875711333,-0.013160812897908688,0.011246795366739783,-0.026198509512044478,0.00520675275848122,0.0225092297142106,0.00013733239871114344,0.08517332473405259,0.05520948037351372,-0.08495428313922153,-0.004670773420822576,-0.04502845963072501,0.09438233399521302,-0.00894716116931826,0.03271434895933759,0.049984844403651696,0.027208408285008496,0.07548754084399896
12,-0.1271779233506042,-0.04799245680734861,0.013841629625751792,-0.016588301139419132,-0.013834400690351025,0.026067120941390822,0.0029567486174658718,0.009307830858489165,0.021322156029930643,0.016687722434697613,0.0019511786643969698,-0.025333104880909077,-0.0008594890491088826,0.005507611306619417,0.02251829200949352,-0.01814937710077639,0.3450195119480369,-0.009367390506280595,0.00573481603424904,-0.04532659922015573,0.02644825790445582,0.0295202234936838,-0.003791436497572576,0.09633836435371247,0.16415785386142093,0.01994690430640038,0.027261923103788256,0.16030028009997183,-0.0469930023712216,-0.03462778499934664,-0.0023170071925393216,0.013336630262137222,-0.011453742461862535,-0.05287453421651494,-0.023284592661489148,-0.002525417657445229,0.04718182404986677,0.1127367174103862,0.05654697343608436,-0.016714657214424635,-0.03195845385521523,0.03090517368971346,-0.014210952038769795,0.011422321047610479,-0.026655985656335607,0.004703881338476773,0.023936791983447527,0.0007667894147690086,0.08549810023215242,0.05581929578398816,-0.08749059714750868,-0.00554678276326098,-0.046796638251044353,0.09444286259907865,-0.009984533990324038,0.03435747691233962,0.049497732062793565,0.028966387235381058,0.0768477786676482
13,-0.12580059716403466,-0.0419468502085585,0.014575826502629851,-0.009751371621448714,-0.01779442095911099,0.03535925321753388,0.0033076317731133174,0.010611713531376495,0.021552879192918865,0.0214743943591041,-0.014060510217616012,-0.03201970004073932,-0.0024064313192277346,0.0063538712715410905,0.01971600011370275,-0.02047206959393938,0.35149547708075,-0.009093006749787733,0.013123283148653008,-0.04231169509837997,0.02230393748628193,0.03024756545919585,-0.012412549155136893,0.09310525656503586,0.16391149841506214,0.017216417373133147,0.016561508733171252,0.16008265047676962,-0.04594672800197506,-0.03405381085727035,-0.0016823015786496581,0.01701120783065686,-0.014105026174194464,-0.04831126362748402,-0.021951840302010032,-0.003951839979584483,0.046136790385837144,0.11523730109097566,0.04588997397616225,-0.004441603396779197,-0.025538990099227603,0.02879474938397284,-0.015287367374837801,0.012522367109942386,-0.026416969656472646,0.00967976682903713,0.020972360638460686,0.0016972656780843635,0.08480234830277421,0.052343898044864216,-0.08381191589540586,-0.004349664626149217,-0.04939572094922925,0.08818988426239716,-0.015069195152257811,0.0337835968830478,0.053774838135852356,0.030751105031217547,0.07979682151625118
14,-0.1263879310330496,-0.042437339023503294,0.01375820267921623,-0.008840516957401625,-0.01827984447970853,0.03487313876402979,0.00335985610043492,0.011033670084958438,0.020990356334457994,0.021638155185273775,-0.016323475767795137,-0.03247186427734289,-0.002128548021677746,0.0036434367818946145,0.020425174388374604,-0.02070426283329231,0.3523136911227828,-0.008439031065929949,0.014632460696170689,-0.04030304923998163,0.022213872030513292,0.030167328332885043,-0.012450051392214228,0.09359039417580339,0.1637934709624636,0.01772718317495082,0.01390605850471641,0.1600455029929838,-0.04580067551204609,-0.03322826469310926,-0.0015065231195668352,0.017251495007610522,-0.013725549109098154,-0.047339431237954054,-0.021941084179800875,-0.003641334646861218,0.04657263228335606,0.11540034546536611,0.04528425653164561,-0.004359662154541859,-0.024733375054866,0.029302946779893764,-0.015271354586130466,0.012290584677989286,-0.02605934578750761,0.009626088604878019,0.02072075450058298,0.0014470433185765923,0.08486282975580148,0.051402087687018726,-0.08343607860693221,-0.004292323591345486,-0.04832391616242478,0.08810840928194148,-0.01435507906707161,0.034348967893554606,0.05347568804977669,0.030146315799359637,0.07842751365189082
15,-0.12834047303240453,-0.04056222978684686,0.012752475291119964,-0.002428111416327174,-0.019345558995166084,0.03306103155832687,0.0007587067277919434,0.011229278481610476,0.02116908582965965,0.023851815006325237,-0.024428397973252605,-0.034772145686866915,2.399878719278533e-05,-0.0036745544722358364,0.02086401222546018,-0.019322543311430764,0.353589386137497,-0.007639707518128108,0.020428456793691947,-0.03668622363018825,0.022221951367544224,0.03182227197919081,-0.01113951974249732,0.09364469430509081,0.1630255668388804,0.019250880859614166,0.007459027841623947,0.159944150114269,-0.04989087182112434,-0.03203038842146608,7.662483203282472e-05,0.01684213493713903,-0.013613616259431645,-0.04553775103965646,-0.020686736641764545,-0.005215521700308337,0.047481494936885076,0.11548059087443774,0.042521625304929284,-0.004287257651394005,-0.02104462202650685,0.03397954483245762,-0.012917622666198532,0.011488461314727827,-0.028167043884355286,0.008548380687092091,0.0187760322569334,-8.635906803653239e-06,0.08312115162234021,0.05353680575467104,-0.0820653455166052,-0.002669999492648011,-0.049373759588903166,0.08805935869511614,-0.012679719151138398,0.035130235382783,0.05305444914526901,0.02797006386073841,0.07736461275120653
16,-0.15072655480055608,0.056751841457124315,0.01136962049627495,-0.005471110091963848,-0.018597691774523018,0.03236756900711829,-0.0013110430718562436,0.0067430546651209055,0.01819380636001052,0.023429947620723625,-0.003126538095986144,-0.026590495160165633,-0.005936751086836006,0.02279449870496294,0.004496604060705123,-0.026279379448702046,0.34515341813160944,-0.01943733606063937,0.013814275337518892,-0.04400496493532406,0.014799005960801678,0.029756229279645673,-0.012337237330090659,0.08347403403851496,0.15855342833890107,0.015552742610347559,0.006690445458166427,0.15570639129249095,-0.04174260994934473,-0.037416630884042415,-0.0014859268358289486,0.014138606168724746,-0.009711902020442973,-0.050151750946036425,-0.023292536263404773,-0.0020457376187540924,0.043764249057475196,0.11507787968277122,0.046905218309706,-0.011639469880204981,-0.025197317872457124,0.02776183396605767,-0.016122012665448958,0.012445742919746743,-0.02973298664812989,0.0067833140954868445,0.022984972707453706,0.0019443777966440482,0.07930447935056777,0.05194868865490415,-0.0840964417994779,-0.006969444782301474,-0.05121383445025781,0.08225721022166953,-0.007366546307437119,0.03805317214005623,0.057103469943996794,0.03166680652651028,0.08021731641840417
17,-0.15579790301804589,0.1153343708529121,0.0072694620178798295,-0.0008203051794593174,-0.01749566154944622,0.028112635332664625,-0.002975909639894278,0.008420701855661515,0.016343074870973407,0.02256026038458127,-0.04248216040775327,-0.024595063338653852,-0.0031125387750763705,0.01587367201889158,-0.001690817986805842,-0.02448976091077654,0.33489451149039107,-0.010679054539716293,0.019933011725369352,-0.033782900121178995,0.015708361686497318,0.038219094678562014,-0.012717080904159742,0.08274120047177845,0.1550797970476677,0.014391668299067522,0.0015421123305485436,0.15281124300343016,-0.05126519199233334,-0.03417107785956245,0.0019116914294813137,0.015213462422073299,-0.011162264156177245,-0.044078165005831234,-0.02001886904053172,-0.005862706535050461,0.04362370401129468,0.10935094599835514,0.03523051351638716,-0.0016607944393244418,-0.005452364364807846,0.032418790328060526,-0.012980640021010287,0.01069152354910834,-0.03139739041016383,0.009594492013955897,0.01540372802895814,-0.0003670734028115839,0.06724954612698411,0.048932002655993616,-0.08532619811912885,0.0013282844984559134,-0.045028791069643054,0.06960255900284115,-0.00825172854390853,0.03393678877735673,0.054814297686073515,0.02843777910934407,0.08068712410965154
18,-0.1644680132646411,0.11609535087217442,0.009063009919814912,-0.004112135229614111,-0.019480197923534164,0.034662071959308684,0.00025258756102913046,0.010528185371099603,0.017094733494820862,0.019785678011017337,-0.040292220231312056,-0.03177308764940497,-0.005169970796223925,0.009494057985251414,0.011009381889256705,-0.027537896859741628,0.33214282498357006,0.0023126890880518086,0.014926503012842832,-0.03921565314245257,0.01701281744120385,0.034112484011311915,-0.01868983931496909,0.0812643627609551,0.15717363379715477,0.018123668584436706,0.007341397752110674,0.1511749229090884,-0.04623132391369408,-0.03678637976296083,-0.002335338309966546,0.01890385441589664,-0.012278330095418725,-0.04223060877287376,-0.022312022671743637,-0.0021610856881211964,0.037937918139770155,0.10686332314913848,0.056764970269498706,0.0007114289495536218,-0.022007642458245966,0.023252474154186534,-0.017691833905515205,0.014105716093218146,-0.026014848815420762,0.01465281480414943,0.020901786153909408,0.004483133138263227,0.06901079839852874,0.041655794099609185,-0.08819424385568964,-0.0016773147473723017,-0.02300961213287016,0.06902249552243261,-0.011300309639831252,0.03205261913504981,0.05434692032070045,0.03417658189556253,0.06255691913765025
19,-0.16341519016468828,0.11333729557843854,0.009643352468447376,-0.0012804826674978605,-0.018633800554333654,0.03209928776728935,-0.0014447377136776534,0.009386748031225692,0.020077190179175745,0.018668792908149035,-0.046542827094991246,-0.03413701511674607,-0.00494576221379038,0.005181184757690611,0.011110153910157038,-0.02682346927983294,0.33368282962555995,0.006953489087956252,0.01721256956441115,-0.03424905775559593,0.018449567026786542,0.03172871667649298,-0.017974393836467078,0.08040956700938923,0.15930488282807181,0.017184127792249107,0.006087028048175027,0.1530247185702296,-0.047866017090751035,-0.03585011717446911,-0.00165797619949256,0.020645146847152802,-0.011220908140214432,-0.037723131388948256,-0.022365870391917477,-0.004118763239361602,0.03935791182753872,0.10624743872153408,0.047473830478762524,0.004036093843302998,-0.017964427403289553,0.02325044767606454,-0.018170926892928596,0.01419337347227443,-0.02624798673272434,0.0149860124514758,0.019362606559094903,0.005034576354175948,0.07001225625297099,0.04485862832174522,-0.08918610781463021,-0.00040957321083572463,-0.02778281150849564,0.06570672570513231,-0.015243248378251913,0.030247785909148336,0.057889594001043786,0.03299366784155653,0.06541700387106249
20,-0.15856945864641558,0.11053621338535857,0.009125263423819427,0.0005617181816994066,-0.016141721366095964,0.029962975633633995,-0.00010113622979257614,0.010430298452249735,0.020259784570210486,0.016013105153809576,-0.04853726180202712,-0.037721095753095873,-0.004643006562339241,0.005316700329935102,0.006392399187565407,-0.026624416962952577,0.333488215766418,0.006668875758581734,0.01511457110344147,-0.03042845994154754,0.01762159246146393,0.034029175703972264,-0.017198587432920243,0.08000574072564862,0.1568067943506037,0.016602802881319035,0.001104763553468698,0.15140109466729393,-0.050710643678014526,-0.034526373351302694,-0.0002337287998316077,0.01848594584383517,-0.01046537729886758,-0.03666632355656235,-0.020924120416762917,-0.0045785264874146775,0.043302313408170534,0.1091798095780565,0.04442939862362386,0.0031171926280816084,-0.012786968055065833,0.02220323564242049,-0.018136069066246166,0.013195760057151423,-0.02709405707843585,0.013729521869143071,0.01865978726353056,0.003723204912129471,0.06922378777272288,0.04575643368559954,-0.09324407378491611,0.001174730592375685,-0.027352887798289025,0.06752345307667991,-0.009645040181162908,0.03241803566164596,0.06079689486997266,0.03195830501673122,0.06600943845769536
21,-0.15739358677271764,0.11004977980570145,0.0077896313138722155,-0.0007511572874445307,-0.015392129836172493,0.02691768163785409,3.347219805063233e-05,0.009821755152290784,0.019362265531729466,0.015454738479024475,-0.0425958515444829,-0.03611004357443853,-0.003383093176205795,0.010997503718478577,0.00308454811919837,-0.026054061231402536,0.3337563249968854,0.005730402633715227,0.013759365997914878,-0.030729744444842028,0.01922211392494669,0.0348944872713463,-0.016668333439375717,0.08083292032024302,0.1542981876418864,0.013965484416575066,-0.002017486861430984,0.1500381902158743,-0.051392958574086295,-0.034762938887614774,0.0006636512619618164,0.01607293810735555,-0.008118445825726354,-0.03625080363348202,-0.020612018174326202,-0.0054880213260295055,0.045468002473050065,0.11156948067914414,0.04149193007375992,0.0022793399529971435,-0.009406553267804645,0.02325924745652965,-0.01699274968057392,0.012657401753594505,-0.027241296860364854,0.011830943148775282,0.018456034958753715,0.0030243082612261213,0.06805796289430893,0.046463808784608526,-0.09227780467336381,0.0012334735329063713,-0.028880562864548695,0.06923701074325071,-0.012290408112910527,0.032821774627270636,0.062007046115448876,0.030541574463791084,0.0676652673850241
22,-0.15301440848055772,0.11362230527044322,0.008956812992295324,7.855636406456712e-05,-0.014123891618872963,0.027086051702521593,0.0024880320285290336,0.014499599598876504,-0.011229617857514675,0.008061144501093624,-0.027252403479072405,-0.025962564925453714,-0.0038869821733058516,0.023037589323611156,0.0030759885383092977,-0.029280220148743732,0.333069295640145,0.002901120346349357,0.01417206824675433,-0.04170066424576888,0.01529515357343322,0.031264144735217936,-0.02042442795124418,0.08059194552221342,0.15275185486952714,0.016444792293025805,-0.0020625041176761958,0.14903134168494822,-0.04016091441331638,-0.03295803265037871,-0.000512446128817224,0.017788633925737436,-0.00807852003563957,-0.030154713949702563,-0.021012223800980244,-0.0033533636738069194,0.04131229246423019,0.10997894195524642,0.0428784294265701,-0.0005753008063268794,-0.019391448976486658,0.01859435859292744,-0.0188852534366938,0.014553682584250034,-0.025752262215175976,0.012991555275395044,0.020810177059203273,0.0055507989657004346,0.07455356074622331,0.050198144241084555,-0.10937025752188713,0.00018665025771154463,-0.028986830027900222,0.07073091501848666,-0.009432082632201902,0.03712621040831067,0.062260698020955324,0.03303367033544121,0.06858481875869264
23,-0.15669007660877868,0.11115794198910188,0.012221354323840819,0.0037695465438249104,-0.016773581553541354,0.03648441636051058,0.0023409026582954027,0.014351701839215277,-0.01575814963260524,0.005265701499990476,-0.020510803375431024,-0.03555012747641044,-0.00638674428741824,0.027988731065393888,0.010921303819391331,-0.03011067538698142,0.33336871200163615,0.012515235143694773,0.020531678599085248,-0.037567786921373116,0.022145092033212372,0.02388075043046111,-0.014880915731129166,0.07799803297802334,0.15201888827900034,0.023414835708017747,-0.006792610263915564,0.14839992794288023,-0.039936198469424325,-0.030368602982985476,-0.003602602063354327,0.020312820866179103,-0.008034711531260931,-0.047685410076516555,-0.020093744541972335,-0.0022496575360602218,0.037622842790976205,0.10632455116558515,0.04781171331830547,0.0017532541020586216,-0.02190803266443232,0.012986309736183446,-0.018828693865751627,0.013628997475254897,-0.02135979747645265,0.011714457128432264,0.0208937142329993,0.004699747840053688,0.07011909378404474,0.046112010111746066,-0.0994717149688041,0.00026545133142650125,-0.03453528030646388,0.07092938265045974,-0.013895894501461151,0.033411948120733025,0.060765614313575605,0.03039559010075137,0.07446955993818391
24,-0.15803661979122213,0.11115906749829244,0.009572507997420512,0.0021038676020051165,-0.01784599573283438,0.041845836979760034,0.0015823910052758805,0.014730362196958013,-0.016266279903615354,0.004638046632627037,-0.01931709899600121,-0.036751278178535386,-0.006079427452897303,0.027096918698868544,0.012106825184815621,-0.028592083392261377,0.33124036762606457,0.01917313687744543,0.02087326429387532,-0.0400661806085644,0.022926473427522943,0.023990695131269724,-0.016263045300702394,0.07953356543762254,0.1514522959438986,0.026703342050540143,-0.002325307932842283,0.1480627267074056,-0.040014870663734485,-0.030158701358294394,-0.004444727432303862,0.020969481139166038,-0.0077922048139329155,-0.04759131779721403,-0.01963865948116397,-0.003327251057015127,0.0354416662998793,0.10250731450892162,0.05324760945925908,0.003751511462005902,-0.02016218001382007,0.010624237719049653,-0.01965120117021154,0.012657950299915942,-0.021959324509561184,0.012017519497131693,0.01961930573092002,0.0037543423743216487,0.06919137631597441,0.04471229030550404,-0.10097426104327667,0.002069486935196714,-0.03563706754451203,0.07150496688482501,-0.01582014923775389,0.0308148115204062,0.06136966744275025,0.02877068561392553,0.07689931861144926
25,-0.1586383846381597,0.10947535010336389,0.009184338519488635,0.0018534028399414969,-0.017910887666008467,0.04219644205321597,0.0014417482457761656,0.014718124408561933,-0.017305900052492024,0.003961761181663973,-0.027042681959834433,-0.03767939096485149,-0.0057640719098345835,0.026890934580233745,0.012816269121237393,-0.028569708326156466,0.3302885103180302,0.0218506666723529,0.020652253732105132,-0.03931870592858488,0.024164898185814354,0.023783402633048345,-0.014690559298750934,0.07917541380583566,0.1528743918561503,0.026503176549087477,-0.0057048603605518045,0.1491292808869595,-0.04071709760619882,-0.029161031772328493,-0.003943253644411961,0.021892779851947382,-0.007988086325418958,-0.046878993101285536,-0.01902149618446294,-0.0031360524878962705,0.035866168381983365,0.10217377356641424,0.052424861333307836,0.004839407268229238,-0.019361454043296287,0.011603413743891877,-0.01884214698254228,0.012839233124129905,-0.021508162187834058,0.01259746393910201,0.019279701334461587,0.004028973459688397,0.06859470739932488,0.045446703366569606,-0.10024533870973713,0.002578242295788367,-0.03456682498647647,0.07168999557830825,-0.017794962863782245,0.031547960712148375,0.06171482310239174,0.028607441633826496,0.07710403621651632
26,-0.15865492806099438,0.11358973764606034,0.007364406077295374,0.0010880059514862012,-0.01875098708100789,0.04419166420974279,0.00248132262415188,0.01788370654545069,-0.015754459343319337,0.0044947337480467035,-0.025396503327144923,-0.036819467976629855,-0.007391668124502531,0.02111311883505113,0.013504855426973642,-0.032116786817560534,0.33262680300859315,0.01900937315166723,0.02016332810996315,-0.040216700607350685,0.026034831548246755,0.025879353882180007,-0.015565025960468179,0.07789692942994607,0.15171789937679928,0.03047369939082472,-0.0019919213274842353,0.14868287649314663,-0.03606334359649235,-0.029277109358608187,-0.005544567569985791,0.022598740121577702,-0.008367503173239033,-0.04334813601126149,-0.01951290837155137,-0.003314593256693705,0.032105889861509765,0.10127071706855374,0.05692671648963842,0.004576854528650874,-0.020601838339662743,0.00873563166630682,-0.020275800503681538,0.012253458222358692,-0.02015574472821125,0.013270187177557896,0.01839874296549874,0.003610496991320974,0.06888943727302058,0.040649469367222656,-0.09865909664820921,0.0020848927322484174,-0.0331616632549578,0.06801376943096647,-0.017170334204204475,0.03183173416945284,0.06007739724554381,0.027893587389443197,0.0767267194867241
27,-0.16015666678054155,0.11274127938348208,0.007438250606610936,0.002528862381587979,-0.018564819655089795,0.045417930764837106,0.0024931875508277,0.017231402573961878,-0.015383861334544474,0.0036147850868134715,-0.027632588312796233,-0.037304813235411224,-0.005766816318590708,0.019501594491763814,0.013475323151776476,-0.03337581436471969,0.33166244830351094,0.022212026176594922,0.01943357730284942,-0.040098248050012726,0.02548196391040978,0.024819142398309423,-0.015655702492494733,0.07864299281878298,0.15247273222439678,0.030636220710960855,-0.001596281688819843,0.14926761066350683,-0.035132719522098635,-0.028692792679508822,-0.005826743915731758,0.023353516425800108,-0.008727212512704058,-0.04281233683412735,-0.019477768059219774,-0.0033397896880842833,0.031156329204209042,0.10025695147985979,0.05837501040266885,0.005381377167241653,-0.021603685309120324,0.008125296710912083,-0.02019032355914345,0.012480347107040407,-0.019631632981129632,0.01414918214228256,0.018821763401356818,0.004037081742147426,0.06982503633084369,0.04112260895496332,-0.09777756507962587,0.002134496654105659,-0.03312386626248091,0.0693132498165802,-0.01934422650793989,0.0307420946910631,0.05946023903280844,0.027728186484323597,0.07568217689474574
28,-0.16142484499616647,0.11163257676463682,0.007074046988089116,0.002172165872085842,-0.017917297685582888,0.047208976767486914,0.0033341194772876577,0.015705434892144494,-0.016307970352809252,0.0050342807272493574,-0.030431616210944933,-0.03428274116412366,-0.006162537182497366,0.015425194721210369,0.014648656428434333,-0.03301849030707688,0.33152892012645835,0.02183598723183968,0.02255425210231767,-0.038988116189176025,0.024777280851258673,0.027586193207495776,-0.015743632515332416,0.07875603188839427,0.152262594297283,0.03131877623312691,-0.006648618303606962,0.1489536533969906,-0.035978744344159624,-0.029805597488254384,-0.0049808951318154535,0.02366418202084737,-0.007555543599545408,-0.04287243584204703,-0.019963392169664536,-0.0033055269092638674,0.0323041946547608,0.10179234030135409,0.056541117914659614,0.0053320418209470075,-0.020661114598620366,0.007588391551494142,-0.021162683030509145,0.012554913810352607,-0.017926479001343875,0.014023299894640993,0.018882904214686733,0.004189900412252971,0.06943033586700366,0.04380472548402703,-0.09605090155420046,0.00039868480555591197,-0.03327643782795129,0.06731429971383991,-0.01994536811157053,0.030868791975400427,0.060058148532243436,0.028618518912571354,0.07523505065583524
29,-0.16229188051963683,0.10911559865192375,0.00383234261287835,-0.0005271187832323252,-0.015794230159547465,0.05093579482355125,0.003774742078646385,0.015168873133770959,-0.015635266030325844,0.005549718145712517,-0.0317090590486984,-0.032235718506724235,-0.006632883935252272,0.014577203584853081,0.01904764465681559,-0.033874419008224875,0.3286195350822662,0.023924845492832067,0.022967743740873466,-0.03952614063044589,0.023481601084115143,0.02845303855826643,-0.01717685651407022,0.07697943049308782,0.15081228042838585,0.03611633638228317,-0.009365019846606698,0.14789103612668786,-0.03388879113971734,-0.030209394345646144,-0.005574889649682437,0.02370765746862993,-0.007750382840421367,-0.041295373216039606,-0.020744686698650015,-0.0035717914174265195,0.032421029765250124,0.09918430737128564,0.05417445503978466,0.006408027540557478,-0.017540316786345777,0.006445323854960153,-0.02184710729073099,0.012810054779953447,-0.01692464572871715,0.013245048940770408,0.021428025564065308,0.005049141442857894,0.07399192863923953,0.04329677362146728,-0.09856941959157921,-0.0003328245433983171,-0.034099971034572955,0.06641448611739269,-0.022078025501389865,0.030165326723178534,0.062218659112985325,0.029589251028004117,0.0773989506797507
30,-0.1650830412775542,0.10785960002582361,0.0041700188800691766,-0.0014549511783717222,-0.015405685125717073,0.05130285859861511,0.004273192238593657,0.015555545197576138,-0.015394417246822403,0.006783618092499353,-0.031014984693619147,-0.033434419628628344,-0.0026574756519355865,0.012771496329427959,0.018335895320670526,-0.032441253997843686,0.32756332931612714,0.02066162624570688,0.02394263271874597,-0.039765753596459355,0.023010608073053246,0.028967750348831926,-0.016528678266353212,0.07565087561222394,0.1504349841952078,0.03531076506597558,-0.00554737540479831,0.1476875864227522,-0.0340505906453896,-0.03154297901033045,-0.005840152345409866,0.02328730915620816,-0.007501034896464814,-0.04305033501698557,-0.02149114053656508,-0.003428487456597883,0.03319288218680558,0.10013381722214375,0.055571812521686935,0.005567760581933268,-0.01578029605828729,0.005565250274597054,-0.022570205764219496,0.012892550595445574,-0.016718022582462987,0.013181507603353862,0.0219870803694051,0.005193999413836403,0.07618968474319089,0.0418893641028984,-0.0975923749226766,-0.00119061544676538,-0.03413052467592035,0.06740570330100323,-0.023712264299682404,0.031785410144991075,0.060134988353934715,0.030342746538529777,0.07872280993399629
31,-0.16525228159711397,0.10865789856302419,0.0038492847671193157,-0.0011298165677321463,-0.015527435809953513,0.05164941135449351,0.004126472298348065,0.015142261222652996,-0.01584145819901119,0.006711885008459243,-0.030465596477100388,-0.03335821385465083,-0.001996874330683411,0.013015015002185623,0.018190005748742355,-0.03280697565850615,0.3273374418700203,0.02008024116502726,0.024581447187195602,-0.039931200467755584,0.02292384187160785,0.029493117445762704,-0.017851620601864796,0.07620379315803179,0.15035592155543742,0.03463636882947871,-0.004790450135704708,0.14745391012521633,-0.034956495983906676,-0.030867310266037774,-0.00578068949967581,0.023327459005868655,-0.007777433757699771,-0.04361455190557698,-0.021569506075989644,-0.0035042858648097752,0.0329737491414816,0.0998114776299247,0.055500245927558846,0.005331514453001485,-0.014712587090622028,0.006155656340263667,-0.022193686076786553,0.012815183868829776,-0.01710009220960586,0.01324903263563002,0.022118169757377074,0.005157604073136664,0.0756455028185167,0.04128932837260194,-0.09688726246140497,-0.0012479889602497061,-0.03403315267945954,0.06724206703887477,-0.024839618555098746,0.03249642578445684,0.06094170401293998,0.03045531935874975,0.07911782769498474
32,-0.1660818604762221,0.1096152685761918,0.003478729389671458,-0.0015126588712625396,-0.016132119294472096,0.05136392823034261,0.0036697817564260446,0.01480022515077309,-0.014972238609516375,0.007048568952363418,-0.03053131335993514,-0.0340367097098843,-0.001387803038034315,0.014027948120271087,0.019431924512038946,-0.032033686584792484,0.32699770728297095,0.021134676527759418,0.024447268342596994,-0.04027459516870735,0.023274481936035638,0.029902758745718065,-0.017034751520481336,0.07638436717211021,0.15057241917475125,0.03522522918352665,-0.002987334747454086,0.14771155578591533,-0.03534048048811916,-0.03067585982119225,-0.00552574141777674,0.02395199411510535,-0.008379904155853,-0.0413161923458942,-0.02169931819595449,-0.0041825780798983095,0.031710365884873935,0.09817073266221867,0.05359916823893394,0.005396048302652043,-0.014437758336684611,0.007289210834985122,-0.022531788835338306,0.012610014171835571,-0.017260379694791772,0.013433791983012512,0.02154060904376325,0.004893824528710381,0.07671096767181759,0.04109760915832962,-0.0958539338260832,-0.0007398948552354692,-0.03527769675602989,0.06697867897932572,-0.02677496153200822,0.03157018098506853,0.060099906634003684,0.029299536555880426,0.07954208113164236
33,-0.1660176457159493,0.10963031146536978,0.00339147434846068,-0.0023260302102926745,-0.016119974636581474,0.0516830285732343,0.0035382146561605417,0.014464581185231817,-0.014678523706594396,0.007059402068071774,-0.030370513687699652,-0.034269628363638976,-0.001469154770715334,0.014570519981128311,0.0194261311436517,-0.03196684104796583,0.326727095088972,0.022473519401419825,0.024315069248068203,-0.04064278211258612,0.0236298009949226,0.029126466055250908,-0.01680146649025309,0.07664182975657768,0.15115640739162345,0.03497672015897031,-0.0020179300065645348,0.14794110353593729,-0.03547916449484515,-0.030593523630556892,-0.0057611750698975984,0.024044162066388087,-0.008681336287578263,-0.04103327270736415,-0.021809847894902635,-0.0040217999036783365,0.03131794370958878,0.09784541976999597,0.05357124657900731,0.005512181713689106,-0.014406026709619433,0.006994282831982949,-0.022692006067127464,0.01270938090169488,-0.017461248900714422,0.013678768383777793,0.02168350910439139,0.0050357302830865485,0.07654370692494981,0.04042473896328749,-0.09609437885447587,-0.0007059109143803655,-0.03520539905715563,0.06714420674001881,-0.02730279862379289,0.031158800608224933,0.0603917997711893,0.02931532428785236,0.07980550217275426
34,-0.16439027862782143,0.11134255675518197,0.004175297178678125,0.0041884784704708635,-0.015590861318800333,0.049435291575716,0.004174126258407849,0.014645165995425615,-0.015490586695203359,0.007164504356596128,-0.03194133833260234,-0.04068071701558059,-0.003933706524583237,0.009921958650764265,0.023975011015863672,-0.03380224270508926,0.32466165772884265,0.01455935947853539,0.024418708465678552,-0.04226688078475659,0.023869794095311803,0.025770700221350043,-0.016096627454541823,0.07652736848733979,0.15143873725364218,0.034744061688774155,-0.0008534724725775884,0.14910168366391094,-0.03775747288939252,-0.030199793756208453,-0.005525666570218854,0.023954078624095442,-0.008482572827347526,-0.04392038673417636,-0.02218943282154108,-0.004016458656884759,0.03545072609705228,0.10037654035638854,0.051655630987899756,0.0049633964391470374,-0.014455651001396485,0.009502637977190094,-0.022010182160120212,0.012815230498536804,-0.01658134381186911,0.012708916603967245,0.022197588477325402,0.0051144969818999264,0.07697767701323631,0.039522998929751973,-0.09348529043751401,-0.0018009205880367373,-0.03375433020466345,0.06841491658226574,-0.023615378317657015,0.031695603525669004,0.06295417179255457,0.030278688877539917,0.08014383160357354
35,-0.16124930659760822,0.1092448370489991,0.003939008718601504,0.007489576215801727,-0.01596564507870967,0.05309794141570026,0.002888737251096597,0.012700551208894658,-0.01726025348961694,0.00854354934930375,-0.03722520583168969,-0.042849596045397585,-0.004835411652326138,0.005803635879800332,0.023169184283508407,-0.032494576566627284,0.32534341221538904,0.01739470977854423,0.02650042064972472,-0.03994823486353686,0.023104209164475822,0.024937980016357306,-0.014684387013900395,0.07764279120097364,0.15273814451796153,0.03382568070204183,0.0001627263395251035,0.14982688193952,-0.03927928428354449,-0.02750105873182994,-0.005324206263553874,0.02467425012603262,-0.008320717691615319,-0.04687229762922266,-0.020949999131646524,-0.004262616492528464,0.03597246069354894,0.10001111022739073,0.05192553876071784,0.007426586876544589,-0.013835268297344409,0.011042957091730423,-0.02039614343438545,0.013049633980999746,-0.017845358515442347,0.01321451187822868,0.021849610018645268,0.0051970276517143785,0.07690620579205962,0.03710324124571177,-0.09231475955838075,-0.0012520677378796265,-0.03375415343197812,0.06589965251951112,-0.027088348187268317,0.030757496739795172,0.06122629369230419,0.030319781963882058,0.0805785593709956
36,-0.15857495426985382,0.11050215017464081,0.004082231675850329,0.006223286909130352,-0.01619953200440577,0.05156212029901944,0.003189833247356182,0.012383027531757835,-0.016539037112984253,0.009787378166458353,-0.036481622187546026,-0.04729976978718346,-0.006643050142230139,0.0016936957064200347,0.025041362117889796,-0.03582363338627644,0.32533083380500005,0.014259470755041475,0.027528450666703494,-0.03967573135860321,0.023648092037400807,0.023481438271351164,-0.013413890073083204,0.07823918226581955,0.15264135433317133,0.0334032477123517,0.002243249121520469,0.150476853763171,-0.04103664776585278,-0.027283786280812412,-0.005195581151648036,0.024447314967654333,-0.008114933095300892,-0.04651146342971976,-0.02081158489753152,-0.004311124745896302,0.03799029221419936,0.10140068473949607,0.0510411591350469,0.0071643905171545836,-0.01288575031864671,0.012410121741800098,-0.019919990108068147,0.01302834247545522,-0.017929282435184088,0.013207072601890423,0.021378842591650564,0.0049610041884954855,0.08057930934887964,0.03571051755770305,-0.08673730641244182,-0.0014043430848734231,-0.03394755692857455,0.06533900687953904,-0.028391953443473606,0.03079206539390693,0.06065386625339147,0.030063338673438557,0.07924793658043414
37,-0.16003965502010487,0.10747666404615867,0.0018367365634820731,0.00795991672594974,-0.016895888066547116,0.0498432337930531,0.002543031856385833,0.014243473338984099,-0.014247390183942193,0.009831319810914934,-0.04036750621375168,-0.044456993722005865,-0.006874296032947683,0.0063728964742810704,0.02626634632688015,-0.03372066548886583,0.32466018723679146,0.012331749715660836,0.027637624381428087,-0.037432195268452116,0.022641786142644865,0.025661418990499243,-0.015138007967005597,0.07909288028554835,0.1526524950022031,0.036248458721088624,0.0029975414299091598,0.15093645863687288,-0.043131547689133826,-0.026584753551080684,-0.005963357299308351,0.02617160501082288,-0.0071503110662635375,-0.04408989603117039,-0.02167966372060863,-0.003069297530978523,0.03528330639569341,0.09873485102149764,0.05076529982861353,0.006034102787745834,-0.013429318493567446,0.01065549535199694,-0.021750678052660382,0.012487340383458268,-0.01849826296802726,0.012278522310138606,0.02188580349829236,0.004778366143129429,0.0848872061006593,0.03524245574557108,-0.0905897042624359,-0.0015640347067991374,-0.0345632702589462,0.06646292406968726,-0.02843856891213503,0.03026928896952089,0.0620940951252127,0.030355144753132755,0.08005523553282871
38,-0.16215665052002579,0.1059900019317495,0.0031817363160045737,0.009765514864435961,-0.017190818380544922,0.04990952991250421,0.004164151608016762,0.014544948839328017,-0.014695399534962383,0.009580459036266996,-0.03886965068439406,-0.04072548096913856,-0.008832826509064568,0.0008893948228113874,0.028594462364237724,-0.034614155335465135,0.3228892174829112,0.0126490861231419,0.027812332460785873,-0.03998664403064878,0.021766289467165894,0.028961515122665853,-0.01715458128420959,0.07778320926535269,0.15378979278447832,0.036084520859741634,-0.00035701317342230423,0.15091188426551794,-0.04141024279217862,-0.02917251799178069,-0.005737136999677546,0.026815776104571417,-0.005768467094203279,-0.04675529529543996,-0.023170837700130387,-0.0011387442910762722,0.03401045016404258,0.10009103996986338,0.05232149360581656,0.006129462295425207,-0.016132705734615244,0.009204356496831037,-0.02373743893007039,0.013649984981551982,-0.016264637473028955,0.01353239042318417,0.025149342461005867,0.00663880300881282,0.08511964836046676,0.03734653437048387,-0.08881326050969282,-0.004255614716408641,-0.03321721360889806,0.06420095497611611,-0.029494219472559435,0.03028033988283732,0.06210829584164626,0.03419755442848152,0.07958707813338327
39,-0.16075186963208177,0.10217016926879277,0.003802700584830259,0.01123973767225074,-0.017940960365999663,0.05099905804003993,0.005039135840229374,0.012883979424276774,-0.014563366418942346,0.009139125820655155,-0.03737661323079023,-0.04490915945608932,-0.010603643294098452,-0.0011883323374318865,0.03250380438730213,-0.03487218119592689,0.3209223868998679,0.01074255974535887,0.028052912343290742,-0.04059747552344102,0.02181541320045031,0.027844300823208247,-0.021192680540769997,0.08120341842450188,0.1539261555595857,0.037213235615710445,0.0040973675643371996,0.15019786911285013,-0.037518136422988596,-0.026941754022320945,-0.005119063875735476,0.02567534406677152,-0.005011326184615771,-0.049704189409488723,-0.02382546335228342,-0.0023638833288971346,0.03165813218029286,0.099538339490667,0.057783425988446824,0.005333736413357255,-0.017241751995895775,0.014821648122541695,-0.02436360348709993,0.011920083340210299,-0.015225170404875771,0.01174612233645989,0.023879390448251443,0.00488019042321454,0.08685839162058392,0.0368894155426591,-0.08647440122449472,-0.0032576531768083758,-0.0369763025595097,0.06456809978070532,-0.026437238381703136,0.029290043947226643,0.06134820989984081,0.0328317865722483,0.08164052932127326
40,-0.15984860479032348,0.10227444481256302,0.0031587926660996833,0.011760393555266912,-0.017961671435949508,0.05139392229100901,0.005450330368320336,0.012937848773963477,-0.015050565204562293,0.007927275509113263,-0.037013476627096836,-0.042834172277923944,-0.01078745891425712,-0.0009263339106436922,0.031536806113691536,-0.034889951928854725,0.3211712890867722,0.011489352642986285,0.027591191266748815,-0.0415229119063563,0.022799929221625177,0.029193976521591537,-0.022040084834405647,0.0825396202774411,0.15392005259041605,0.03769443836057973,0.0045792053605795795,0.15042952035148807,-0.03831399404758102,-0.02708512110528939,-0.005028053416953501,0.02466839631069991,-0.004632944422370382,-0.04859967366627546,-0.024258082790971237,-0.002735203225209309,0.03146934978817636,0.0984484220782141,0.05670590971593126,0.004911941689183779,-0.0169524941072184,0.01675788027816231,-0.024674152809990052,0.011719919187475208,-0.01496937411820721,0.011636681725681833,0.023957807913725985,0.0045162442724691705,0.08614286426429656,0.036297199138830505,-0.08648497395261842,-0.0035319210780898084,-0.0381144680229409,0.06493159187120644,-0.02605719253960195,0.02881123366766685,0.060416228862770635,0.03294482323987802,0.0821279973590661
41,-0.1598825085344756,0.10304057177397637,0.0030938241133066304,0.012700119618232482,-0.017728718187169454,0.05306354109000304,0.00450612704997666,0.012251680553201826,-0.01544689185029112,0.007197201983982326,-0.03429859802767696,-0.041886210091801886,-0.009745008632482656,0.0005523087841925542,0.030642386762315302,-0.03277814242655208,0.32091896415993454,0.013392392076597563,0.025846788605716892,-0.04289887628267928,0.022349694063616712,0.0290707264589051,-0.022580671032608204,0.083875249904567,0.15481785731949038,0.03943943069313853,0.003129918011649891,0.15121128709081066,-0.03658182713026651,-0.02682926567549017,-0.005408032059061697,0.02448334330876383,-0.005066945876237496,-0.048725526434637345,-0.02412890752915988,-0.003070860699415645,0.029561425527356456,0.09685550635200257,0.05839537280640908,0.004711118385318863,-0.01833496165164749,0.0159186664025115,-0.024689427977899185,0.011503920186693547,-0.015835921636726178,0.01181476465374839,0.023735010259675123,0.004283757011503815,0.08634250049327326,0.034044755913690744,-0.08671778944694812,-0.003519889936982708,-0.03765886804132725,0.06301079916224381,-0.025717488192552235,0.029141797217116107,0.060684793564493196,0.03253239946224195,0.0814113365334321
42,-0.1583721709955917,0.10403125413536403,0.0021573823457199438,0.013689999609298918,-0.01859046601935995,0.05227903526274347,0.004509739879125388,0.013130134573445742,-0.015791511304079114,0.007100350159186212,-0.034551609209980044,-0.04019731928673891,-0.01198193684713411,0.0009134800877253731,0.032442519116026546,-0.0338124174126872,0.32174688671312995,0.011902705409889495,0.025445121557878255,-0.042535473382245455,0.02256322934876648,0.029898859811146677,-0.02129605943544895,0.08399572798042787,0.15481888935991558,0.03988092013059191,-0.0019967505436482534,0.15145071228058127,-0.03532603456512256,-0.026828598228344738,-0.00554627219397505,0.024427493597440484,-0.005448050811747286,-0.04818708274344396,-0.02388722537042107,-0.003061624805046086,0.02912663926335875,0.09709286315852701,0.0576063184736431,0.004943970267909983,-0.020108961697564553,0.016183502529633825,-0.024901572534615755,0.011281109687060826,-0.015345496382415263,0.011994760953110334,0.023432129984608908,0.004232036908368978,0.08758010980583637,0.034131564903361826,-0.08581466229098955,-0.0035429958800462457,-0.037050672349529655,0.06123766007679888,-0.02463306343513072,0.02966116719032091,0.06027545740978503,0.03259456469103932,0.08104973106353794
43,-0.1593144998680364,0.10346916012681587,0.002269102424660461,0.01379204031081459,-0.018388316004991894,0.05219793394822318,0.0048863948592971695,0.01354332579053624,-0.01590757673604405,0.0073496367544750125,-0.0349326171427697,-0.03970644927073142,-0.011904222184452452,0.0015039520893380726,0.03315474515980771,-0.03422947973520992,0.3225181861485032,0.011045539009220827,0.025571561996096864,-0.041520209840077954,0.022336366030272642,0.02934633548891262,-0.021084496822183108,0.0843217829173774,0.15430660779584582,0.0399028747663146,-0.003246389947855074,0.15084082108840166,-0.03626894245786181,-0.027622633436561857,-0.005468330470861054,0.024567002473279892,-0.0050177165455440815,-0.04904244666130817,-0.024073255960319145,-0.0029841495270786444,0.030181906615339853,0.0974110071873086,0.05411446859248662,0.004529126679727122,-0.01747452611612121,0.016993614516329362,-0.024918574846552022,0.011372683070306389,-0.015367028376280343,0.011920746110279516,0.02369282033140221,0.004294233267826355,0.08729869942274815,0.03429441216047829,-0.08438949569932043,-0.0035330777083254434,-0.037183432657977473,0.06096691402231199,-0.026232637074302477,0.03040760684780287,0.061701372545846005,0.03265868618026089,0.08104883836211797
44,-0.1584121814446384,0.1037860842870755,0.0016531040621805548,0.01335201374549194,-0.01876374023312385,0.053859636385387516,0.004580200937210318,0.013162400184459426,-0.017458476235737964,0.006648248774605898,-0.034335446492859155,-0.03977165106857779,-0.012859165409509507,0.004292303803729963,0.0338984665257737,-0.03445091785566758,0.32197682554196333,0.010613027095023556,0.025289476019295674,-0.04164414508503821,0.02205814765813763,0.029593946896797223,-0.02137337256033035,0.08468998644243662,0.15454133642015022,0.03997973734082631,-0.0031687697889435104,0.15127743785768397,-0.03561485076881743,-0.027343191910949347,-0.0048176308637887496,0.023562530130335328,-0.005153419175666049,-0.04830842034553125,-0.023237474965851747,-0.002716357264154852,0.030118695875410145,0.09689013636715818,0.054919083914168366,0.0032535229048745377,-0.019196144236999897,0.01679663219475634,-0.02492272717898801,0.011313202242287154,-0.015257825756364262,0.011227316640117934,0.024234668110082576,0.004387472388637002,0.0871458134039129,0.03323385959426035,-0.08379315923022153,-0.0032554406830261895,-0.03760577389445959,0.06159604332469446,-0.027174980758779443,0.030013309050856855,0.062478129229611386,0.032518062405173145,0.08169440545345895
45,-0.15861043919254436,0.1025877834893617,0.0010597159257192477,0.0077581403230384234,-0.01666978302170599,0.05524569222970819,0.005081556634599815,0.011578865310935013,-0.018382991617442977,0.004632450093004325,-0.030566492117126802,-0.03989429709978171,-0.013583663371319657,0.005960924812218337,0.0360545764416243,-0.036334059837431876,0.31989770861163314,0.011461619883942505,0.022279909503501345,-0.04546385409850219,0.022883633658590405,0.03147815051091527,-0.022832035311857693,0.08498309303815783,0.15529470119539354,0.042038234423558175,0.0006491805938551788,0.15182425154070653,-0.032736552778752884,-0.029993052028104417,-0.005681275424354705,0.025011362614108443,-0.006583599820117307,-0.04621944071936975,-0.0251636613965857,-0.004044903482799666,0.03061204310455525,0.09541160557653455,0.05580989866256927,0.006708599313686129,-0.02010357039244247,0.013461816117033397,-0.025209021501747055,0.011769160296839753,-0.01408053152015329,0.011748172964263727,0.024918774204170352,0.005083742460395324,0.08766930596866003,0.033230689411948906,-0.08195901971029083,-0.002091386514989999,-0.03831791034240663,0.05871172913455751,-0.03169425456387426,0.02848685551057284,0.06705294728575817,0.032988193355325414,0.08479071166225927
46,-0.1587517887143964,0.10277117719088258,0.0007464410239986708,0.007669602901931574,-0.016300440163706846,0.05570349815345051,0.004982628923805126,0.011550991730220743,-0.018420594449059868,0.004696704637352116,-0.030993953365375325,-0.040041556679045284,-0.014051284023462006,0.006843449546464251,0.0357288059317262,-0.03606727741724768,0.3187015433180619,0.009983223379820825,0.021802697617428608,-0.04574392322206107,0.02295059898384408,0.031043822367838158,-0.022754266176567665,0.08495496429298706,0.15565182902016594,0.042395196713190225,0.0003688147563588163,0.1521106797458706,-0.032411301212156615,-0.02968542457953947,-0.005475047554374344,0.024842599954446504,-0.006165985536899941,-0.04643032580638731,-0.025219249859183546,-0.003981016031719447,0.03056738009464463,0.09560477085304861,0.055481789150257595,0.006455463325516563,-0.021394058662840814,0.013129610171335971,-0.02512364871156887,0.011959569204891222,-0.01408460633324495,0.011689371569633714,0.025334914928582423,0.005345893991358103,0.08665256866036232,0.034120413141482835,-0.08226353386693572,-0.002454937163402434,-0.03745560436057371,0.05976191838877212,-0.030645232448952786,0.028030167324513505,0.06767474159892928,0.03323550612507725,0.0853717076204519
47,-0.1589727537394211,0.10366403078423608,0.0013240700293200942,0.007611634463275033,-0.01611891448568125,0.05539985093067739,0.0058304429268618415,0.01243448032901979,-0.01788191664323046,0.005067920137985583,-0.028088407044612844,-0.04188561948274606,-0.014732917417656874,0.004225002698311982,0.035245800407122434,-0.036658160563230784,0.31782417415579217,0.009407939622710557,0.022558003433494758,-0.04506749220354191,0.023277998646000924,0.031356755922548524,-0.023412364597459195,0.08498081430024006,0.1552784391672515,0.042123817618076036,-0.00015183649594085666,0.1518462335925457,-0.03178258037111961,-0.029379511361020946,-0.005337963194115561,0.024757155956521497,-0.0070675640296712,-0.047374731759656466,-0.025503907876198773,-0.004302360379952649,0.030309730497701245,0.09611160362187757,0.055378691138106236,0.00640125755130022,-0.02080218698307162,0.013858635806044496,-0.025245394964736788,0.01167341022002286,-0.013446438595472187,0.011325416624052238,0.02497542209362803,0.0049138619849541,0.08720427002076983,0.03452070515134855,-0.08284590914969037,-0.003189281388969739,-0.03795231467362952,0.05976231493381225,-0.029074169424794,0.028304417383288417,0.06858447777852072,0.032862385817005194,0.08587353108119714
48,-0.15812757136221084,0.10530896888509672,0.0016747440899378626,0.007236083495225661,-0.01650028677681772,0.05623785583461487,0.005567589962003444,0.012694381158257105,-0.017139298493709355,0.005983545868714288,-0.025243785314214555,-0.04441667212608751,-0.013935024587875428,-0.0005064684247699378,0.036068461025795286,-0.03652202250917856,0.3175574256468367,0.008415738109602087,0.023622357243424923,-0.04417361172242393,0.023379831404752596,0.030600801237262963,-0.023695437476784206,0.08523415832906972,0.15577294196463734,0.043275636846794766,0.0002776425525151874,0.1519120956369526,-0.03075492350699642,-0.027981461849854367,-0.005198057401355153,0.02544475566085387,-0.007652702823989751,-0.047399658215349916,-0.02532960312520915,-0.0051599080201654105,0.029881617409912496,0.09522919929729265,0.053975047664185025,0.007170224932476292,-0.02281025960979128,0.01512074793063184,-0.02453040154866237,0.011325140628356371,-0.013884090247938102,0.01121348754426653,0.024069555798541933,0.004306179067339875,0.0872879099341642,0.03375321062850696,-0.08282000299670787,-0.003459881051453165,-0.03827829601973184,0.059491859420872595,-0.028323918457015887,0.02903659304886239,0.06943558423206563,0.031476259929848524,0.08480571124862084
49,-0.1580737770839322,0.10478819791907676,1.985102893122087e-05,0.008580336008029137,-0.015597404473394706,0.0576192526043556,0.005322945566740309,0.014070407578161736,-0.016581774711849608,0.005228164187917102,-0.028482881840123618,-0.04550357009351882,-0.010346973146401537,0.00012779889006812344,0.03519252065513038,-0.036829096726391446,0.31561316424635494,0.006064472009317552,0.02334522856346388,-0.04325252887884803,0.023303507939201586,0.030908134434973283,-0.025150407437949485,0.08472670893170334,0.15530462495480132,0.04162219042802304,-0.0010123869657587617,0.15250758200170744,-0.03085683501974142,-0.028356014094203626,-0.0032952877849617315,0.02584994475868911,-0.006603915075821374,-0.04488793433795462,-0.02462466675439722,-0.00541707305445888,0.03072007783010801,0.0947126759738236,0.053957784595064694,0.005747031297744614,-0.02224661917289879,0.012619379098566112,-0.024920599062038657,0.011255369064775657,-0.014480316109274293,0.011748719689742634,0.024526515233174527,0.0043205520035569265,0.08869120336932904,0.03444734842519909,-0.08165796796834832,-0.0032874581919698953,-0.03644233332683069,0.056114204493235946,-0.027233714134075188,0.02787298579991832,0.07156513955855927,0.031615447547642894,0.08503206875805562
50,-0.15696236207431954,0.10529142510195709,-0.0009909727175963627,0.00804784396167146,-0.016000571731283126,0.05721340977098618,0.00414940892172492,0.014926331541515622,-0.0175417443734953,0.0060676349137535725,-0.038478721755881816,-0.04779184871392481,-0.009886974694685661,-0.0034858660377628642,0.032936621598778255,-0.03425129542955317,0.3171317457400287,0.008356820276758378,0.02734144346949837,-0.040813239957248885,0.02144831804365491,0.032950315298725816,-0.02468033472308608,0.08540417114066251,0.15645916970793722,0.0397653771020858,-0.0004417212381276885,0.15409113219429524,-0.03276998373761526,-0.025916907936971528,-0.0015125340100046736,0.026269835326441,-0.006685325991034773,-0.04329039045136485,-0.0225907211673734,-0.0061631258751540545,0.0319961129924262,0.09313507905304334,0.0490379346761468,0.008729677899284595,-0.019813496554016735,0.014769634346017229,-0.022989431247589866,0.01068188265193302,-0.015771125587773497,0.011295670219519978,0.02290100478632896,0.0033202393373582026,0.08630489727048624,0.033416806905416915,-0.08096761193115348,-0.0013785400193802714,-0.03542092631762002,0.05590646819537907,-0.0268769341981939,0.028313933416213247,0.07276286636626116,0.02917929397495954,0.08387020227096223
51,-0.1443468668764546,0.09827380776078111,-0.005652604181904588,0.012788688552462096,-0.01773385318461797,0.04793304814926241,-0.0025150705260928953,0.0114119112951626,-0.016833100555976987,0.008572399062466556,-0.05228015584365764,-0.04184592572266229,-0.010761338981215061,0.008939648368957822,0.03004555830772926,-0.03786509717594866,0.3198888470705815,-0.004032994295197314,0.032564826082040844,-0.03718812788967104,0.0185495013656458,0.036075699254122635,-0.01804569939998395,0.08969891435196624,0.16103481829444352,0.04039714297181894,0.008194905166898095,0.15866265455119702,-0.04737695560004096,-0.019038512485786644,0.0022397832595707845,0.025932358118469032,-0.0065395974260428515,-0.0425798211665909,-0.01818637712376329,-0.008837236247238372,0.03605808536870745,0.09122822744555523,0.04900326505291375,0.009068110806250756,-0.017073490710578832,0.02114855659916941,-0.018336415390212232,0.007823210532220206,-0.024707844628388795,0.008304034334704995,0.017817761597442156,-0.0005705075827227085,0.09032192497637348,0.03189107656567495,-0.07776500623575876,0.004522949054956749,-0.03622092401009968,0.05656531464429488,-0.033253612225335294,0.023626514840662007,0.07214075820102342,0.022511954034942352,0.08635087942747488
52,-0.15305862164274492,0.11080077331397663,-0.0001396413836345163,0.009757625407028542,-0.01576864117428363,0.06012752947331208,0.004059186663373361,0.01613508789956038,-0.015948223431365788,0.0072396442563735135,-0.02105818339321328,-0.042821066314249284,-0.00749331694448824,0.0011500901374278125,0.035824810202210546,-0.04515318178805148,0.3107589658607333,-0.011106107400692329,0.024656212916787972,-0.04479477747224832,0.01678481028617672,0.031616798856391556,-0.025198845172352796,0.08392065280934022,0.15842324734983326,0.039911958173482136,-0.012136071881894547,0.15949914294755949,-0.024776735428193624,-0.024406979915249108,-0.000790713185257867,0.026898758077189958,-0.005738457300580026,-0.04590827259555702,-0.0232378179218803,-0.005731273198574294,0.03202555710244277,0.09431577680753604,0.04516615629428023,0.007074933036530231,-0.028204598054397786,0.01599787073005107,-0.022480631271312692,0.010993304802943154,-0.015852363740817613,0.01011012796155383,0.024025531330748896,0.003406014646797635,0.09374897733893808,0.038104841525276684,-0.07053900606057922,-0.0033439783522394694,-0.03503853333324785,0.05341874680423832,-0.028119599206834246,0.021682096363200825,0.06811759542279604,0.03108757983486545,0.0820052329309829
53,-0.15558737195692054,0.11023529395443085,0.0006617578246967942,0.010373003528870483,-0.016000401472192564,0.06279430714127071,0.004484624745236439,0.01715466668281523,-0.015000577147380286,0.007275536078430039,-0.022196781179246432,-0.04531606707804339,-0.006010515283625165,-0.0054458697983671015,0.03617468024397808,-0.043356253714796,0.3090896406420355,-0.007948132711150892,0.02539450239983935,-0.0438270422460773,0.016776317901600127,0.03104423149518274,-0.025438883562648743,0.08362348139913886,0.1586238484458953,0.039663200605447764,-0.013493143513442952,0.15953057118615868,-0.023363903680571604,-0.023824571942989807,-0.0013703743111233837,0.027967676769544807,-0.005748480326045207,-0.04686168710324467,-0.023580751827225955,-0.00571155190910158,0.03214981163911847,0.09392638665805263,0.04228534441561955,0.008378078862910652,-0.02834880238487077,0.01674579357729086,-0.021869139690836138,0.011735637499976354,-0.015099384193603042,0.010633112058417184,0.02518094819313326,0.004228268286803082,0.09371049476023854,0.03921341371254983,-0.07074543587281962,-0.0037468849586568247,-0.0348749432377186,0.05291089674202784,-0.028046456571966062,0.020244717297464628,0.06785155844965678,0.03072429200981672,0.08202731246701608
54,-0.14142849565151897,0.10893252521736116,-0.006197699926349857,0.009971752048493713,-0.016736646690839053,0.052153570466629495,-0.0021086453387016394,0.014611777727028014,-0.015927839667906687,0.006990125131749829,-0.013938925351886034,-0.030420800048629668,-0.0029799629777845726,0.026974654160826665,0.026702737418488925,-0.048056608139930644,0.31927870632616556,-0.026000588707329478,0.024472793924431004,-0.04650183098998245,0.012366814532275358,0.037008699576330135,-0.02058507109555631,0.08506970581984176,0.155224437920425,0.03869008092551202,-0.008218864294550675,0.15818341727643379,-0.034711464013134734,-0.022259555557413498,0.000731434534500307,0.025156639781751915,-0.003863981815582425,-0.04564417160156147,-0.021975578981914334,-0.007223924783528312,0.030939268049479867,0.09091466350167463,0.04559557521890206,0.004897766149251247,-0.022654073902517054,0.016963113545976946,-0.021576291979108264,0.009369213136609341,-0.024074363173668404,0.007557310287126552,0.022129038131601445,0.0012796598880140048,0.09550128805415474,0.04006526663309832,-0.07683881188603196,-0.0005476208103098717,-0.03937333155431452,0.05615721580387756,-0.026405021363230682,0.02414593555807285,0.0680228564281223,0.026902260286491942,0.08328986684258294
55,-0.13874178728062683,0.10516962819164956,-0.005045657516531263,0.010399211615147234,-0.016739932078948565,0.04726505422361828,-0.0028228528325647353,0.014434004016433858,-0.017091062739468588,0.004901502245143757,-0.016398959942933326,-0.026762250404514125,0.0019268808065907625,0.03761901342083184,0.025304594905682015,-0.04613783626989222,0.31940476548800967,-0.028071126130248238,0.02201625317862027,-0.04448905885865609,0.0137006670203174,0.03705432695732622,-0.021821853184623922,0.08171530618662974,0.15189254725952508,0.03326832406049412,-0.0074261699285108245,0.15371323594392539,-0.030481020715691014,-0.01821285892902529,0.0013416868817645014,0.022453165488943022,-0.007313965492966556,-0.04870529541089535,-0.01887938840484195,-0.008061843792190281,0.028400799346225813,0.08838067327978605,0.05124781913277046,0.008195429235401603,-0.018728168471925332,0.018347818340307374,-0.018979598749317723,0.007502880914118771,-0.023717085293492212,0.007201742508163352,0.018817993188340303,-0.00019484632901500246,0.09507409614136697,0.04282440625646395,-0.07733877639332841,0.00040308895281847875,-0.036129814539060286,0.05349919357190677,-0.025860168909934794,0.024675904889943385,0.06753628996642355,0.023626938348512892,0.08483613663600006
56,-0.13657136839875164,0.10036186066537614,-0.005298544653346784,0.004587594776515318,-0.00864381156881855,0.04697341393116257,-0.004271913900276181,0.01402868820183237,-0.012799451707202035,0.0066039799909338665,-0.024542279760531492,-0.02983957968010777,0.004389263912117176,0.03693073715853723,0.02394912980563734,-0.04535712256677771,0.3206387856763012,-0.03046753996800479,0.02674803598481624,-0.037406028199607304,0.01608308942437339,0.03568838769009974,-0.026259660128801966,0.0778257155914558,0.1532458865548951,0.029730029657461157,-0.013465684503263593,0.15481677704223562,-0.027669259118272848,-0.015319335779648984,0.004480476066891831,0.024001342192616446,-0.006155658887189741,-0.04772586563234078,-0.016024134091822663,-0.010732052167046384,0.02733508134546773,0.09006381694578695,0.05078485376978005,0.008264663286760739,-0.015778936439659833,0.01915337843426666,-0.01770563833587468,0.007087752128109559,-0.02740905782850514,0.006777888605595378,0.01718636490331593,-0.00143774172203555,0.09337206247669413,0.044301127363902786,-0.07466144303803227,0.0007150713426758987,-0.037652458425812774,0.05353168427413696,-0.025845147220531644,0.02556104481300157,0.06688185910673385,0.020770219218677333,0.08616965138409988
57,-0.13290601609902775,0.09221190597358725,-0.007499444401943326,0.006164424609805518,-0.010127975033671875,0.04133083686867404,-0.006168450950051919,0.012743429499703671,-0.012918020113227438,0.006582048062200637,-0.04530829002542109,-0.0286738893469523,0.004689436482877067,0.03569014094522885,0.02413123568354473,-0.044621774998953846,0.3221060367841098,-0.024080797711914355,0.030962906067229734,-0.032660323083831024,0.017097621694423658,0.03841152940969854,-0.02205767348240756,0.07906030562941842,0.15511128447001937,0.02864535881090435,-0.007720437252059255,0.15558443435207875,-0.03715316641872032,-0.012425057870338182,0.006383546251936171,0.02401806407028392,-0.006310744247611022,-0.04555027697356081,-0.013766057483610431,-0.011999725213963038,0.030310362676236224,0.08951408194519224,0.048701807467809576,0.009372439076009393,-0.009742095986313344,0.022039559135665607,-0.015292472747315718,0.005954415488746855,-0.029875455248962467,0.006172548393941458,0.014502473366653959,-0.0028636907428351956,0.09217981182996715,0.04493609279677797,-0.07539095160735901,0.004747278223757285,-0.03745159342653462,0.0519852174472046,-0.029194068615886734,0.025916457438523718,0.06836593451626431,0.017790995135750238,0.08834442847824756
58,-0.13525317298714848,0.09980281900981527,-0.005901893011949517,0.004720662647112913,-0.008941078108475147,0.0481870905945488,-0.0057165084549285336,0.012069362759718812,-0.011528800138327784,0.006697177309908354,-0.0232482236716504,-0.026309414630362574,0.004603992498235223,0.039470608357025594,0.023456742763878883,-0.046062560453102336,0.32101089374316605,-0.03220174049539315,0.02718458922647903,-0.0376157811498629,0.014676092058324363,0.03629304548202125,-0.026285017106702193,0.0770349451554825,0.15288575850078112,0.027751545442070934,-0.012956773898313768,0.15484143337625,-0.02878445114805402,-0.014163857684384166,0.004972927967855532,0.024013337398903503,-0.006138646952531621,-0.0468930711465181,-0.015727085693682193,-0.01165713143886012,0.026318769498109053,0.09051355949529807,0.05253536460376104,0.007125432042161966,-0.013753892423678905,0.019028574354585562,-0.01782688725714404,0.006463671732962614,-0.028875083440811723,0.006218789445853609,0.015981950192913316,-0.0023233615433677114,0.09136470968863951,0.04719066545608431,-0.0744799333291345,0.0013435436665063616,-0.038805642530854084,0.053425196787820435,-0.025632117443795125,0.02697224697286909,0.06679994829760319,0.019232134393656945,0.08689454521862995
59,-0.1389337862261841,0.10465271468759432,-0.002950962052496052,0.003458122478695855,-0.00887064537406713,0.05054037414975311,-0.0034525314582704164,0.013742132555699676,-0.010398985281509161,0.007055503840065271,-0.016620266599541165,-0.030060442087720768,0.002316730912515534,0.03361456767395337,0.02547869865456133,-0.04599769005391134,0.31989207711893647,-0.035668194883603614,0.026940091747142823,-0.03945635477156654,0.014827627366346558,0.034583303177189315,-0.029042508802579484,0.07607493827484134,0.15239951842078067,0.0272719075519983,-0.01147975418635088,0.15478765709636175,-0.024988771441353398,-0.014922761789499967,0.0032992706864966516,0.02449285022512894,-0.006198860804208867,-0.0484485482621249,-0.016462488479446626,-0.010896024241502303,0.02590906861888885,0.09089671666701218,0.052340410637077554,0.006609027081659837,-0.015658131879591013,0.01852959687138708,-0.01876526460073347,0.007266327890846003,-0.02677340820449969,0.00732641145730076,0.017333691900101755,-0.0013735922489074767,0.09288017389348105,0.04817932691446465,-0.07266600102226872,-0.0017771191796942727,-0.03892470108626757,0.05503754983289635,-0.023798385696374547,0.02461575822541795,0.06643253534538283,0.021185394654512798,0.0846161041057826
60,-0.1358197482673678,0.10534152552132715,-0.0042286731649007585,0.005279003642259488,-0.008104507842761136,0.04849794468131462,-0.0036536577567752443,0.012129570743535135,-0.011775999594664452,0.006194088411900325,-0.01331166091284652,-0.027664506983925276,-0.0009195743349158412,0.03276998401826178,0.0247984864459439,-0.05011009051975606,0.3227838556658304,-0.029229623886839327,0.02711470266731313,-0.04000061808409836,0.014647499382385262,0.03432874141487298,-0.029029873844896015,0.0759541258764846,0.15161092188934547,0.029600545327962247,-0.00971252525858836,0.15433758241478598,-0.028001142456963477,-0.015989551452051803,0.0035451825805173066,0.023706608280123973,-0.0055284270004379394,-0.048355372961127,-0.01607743668093658,-0.009910432588816331,0.026714358733363308,0.09135026047393614,0.048711383698028105,0.007837578860313957,-0.013213062198561606,0.018854855229739034,-0.019161736756286706,0.007473755393496286,-0.025568190406621824,0.00839058476952036,0.01702606813802114,-0.0009900823439405895,0.09050228939903299,0.04696865749387691,-0.07346483438806048,-0.0024087558157336467,-0.03874732146345097,0.05392917758698332,-0.025978678296001135,0.0252005573852402,0.0659511710584774,0.020575418795845637,0.08482959928128725
61,-0.1388399597496264,0.10782285054375572,-0.001674083619420909,0.004521417004348193,-0.007922610893810753,0.05066278135117883,-0.001758011991687657,0.013123959191061348,-0.011592823106685914,0.006183490487499157,-0.008996443197245836,-0.031691425245484725,-0.0014808537571865397,0.02822533485989374,0.026463583117454652,-0.049822599568427835,0.32145550460296085,-0.029156224559322257,0.026779886371477903,-0.04022957955632874,0.014334870070349932,0.032882900539685705,-0.03174478245957087,0.07501149918517927,0.15127673759993476,0.030497448495921963,-0.01307204898300374,0.15415435472394012,-0.02277297774839799,-0.015577729449784966,0.0031607888842510837,0.024511647180388032,-0.005086878065048853,-0.04837798643154504,-0.01631969798971455,-0.009233134840053735,0.0253798006606595,0.0922900215022022,0.047913265402420316,0.007294289224747797,-0.014921956744129912,0.018328118860366328,-0.0197348083681057,0.007949541727770864,-0.023395630780535904,0.008455346519135511,0.018277745018759086,-0.00040210961963340865,0.09128341407123398,0.04813344779284098,-0.07291027986718863,-0.004381979280587117,-0.03836457914257476,0.05356815789710389,-0.025699338842151705,0.02456577680118461,0.0659774069861431,0.021248604904583752,0.08342654227882171
62,-0.14993043204406972,0.10644783773232026,0.004279740539976343,0.002816056800318489,-0.007593804648588678,0.056999705852285025,0.004179982146157012,0.015232504651114481,-0.011129583291128125,0.0071116228123765625,-0.018928871946504097,-0.04410847301235138,-0.003424487650518218,0.005367444244645714,0.03519220768568563,-0.049103448945746885,0.3138409179482826,-0.014323726416037694,0.029186519163163324,-0.03847983074500932,0.018106682836858037,0.02828529585902467,-0.035174525351909,0.07400236433527005,0.15489926839156384,0.02976574239004626,-0.015311484302490984,0.15643033747453866,-0.015663040194751107,-0.016651486172902543,0.0017319208234219802,0.02693665067948612,-0.0066902620171575816,-0.04985296801568707,-0.017401116696217852,-0.008065869092813675,0.02871221535632105,0.09701999835968543,0.044021610906863844,0.010038273265838038,-0.020676490017954772,0.017674067459149897,-0.019835975694487105,0.009868732728002262,-0.016354113435031566,0.010887444351437368,0.020839423763941347,0.002104684048546518,0.08996129783653609,0.04715702385224306,-0.0679020792659549,-0.006414536934526703,-0.034400255948370054,0.050247777192321416,-0.026952366473665498,0.02024644547255019,0.06598055308753548,0.0243792089090022,0.08441766935736554
63,-0.1484178692689803,0.10042841040117347,0.003339018082803609,0.0034115944196220806,-0.008812042556250075,0.053248710808141184,0.0032264014379186578,0.013852815422331808,-0.010810564437363439,0.007521179450607867,-0.038808189942372624,-0.04351457914425358,-0.0029583123090738497,0.000587622053089978,0.03536596112970156,-0.04841441953386283,0.31436937727807096,-0.007327763854376926,0.03395093856097547,-0.03486094444990254,0.019480487106818718,0.031003535330501656,-0.03278072651097397,0.07587497817404736,0.15748124202021066,0.028880115936497513,-0.009239026084737223,0.1582858019980338,-0.02458917335992626,-0.01361746326613644,0.0032792734124912157,0.02739012711667508,-0.007377780473000151,-0.04742322404320695,-0.0153534484790077,-0.008953767959647451,0.032551481538323455,0.09789842226374534,0.04085718556537053,0.011925901070723253,-0.016060735180832123,0.019784699129525896,-0.017776301956967847,0.008833840688083634,-0.017736265239760324,0.010497688070969341,0.018377796823190184,0.0008035701318011341,0.08961488263635362,0.045883196004926005,-0.06800253035428808,-0.002900941283023115,-0.03246457908796065,0.0482787586691103,-0.030678588228732873,0.01801151261179467,0.06719323538758216,0.021707355956584094,0.08568212031684104
64,-0.14395557297093867,0.09504473457929365,-0.0004223270048657162,0.004297284671484937,-0.010079504334928557,0.04865185172192655,0.00031047303433896263,0.012378447790566797,-0.010874757724755834,0.007492097094434515,-0.05057422151774225,-0.04043488211624243,-0.0006752299669276475,0.006129701447035749,0.03375983660673311,-0.04887157803203496,0.3163277450243425,-0.007041139511379054,0.03697667305474236,-0.03183787329687631,0.01939119622725028,0.033933971725406915,-0.029937116984968263,0.07741072620894283,0.15824501595739818,0.02817315788350782,-0.0046939380007163505,0.15929414242594717,-0.033678481844531837,-0.010576102504318827,0.005209203072983828,0.02666201883383571,-0.007365938500699541,-0.044704262349696725,-0.01337012727092599,-0.010236490782627197,0.03385816974061589,0.09653773564623454,0.03998226011604103,0.013006364202592187,-0.011044385964174008,0.02212969387632569,-0.015811502917900365,0.0073598955537956525,-0.021432135248475048,0.0091358058304161,0.01545595564389833,-0.0011852275838239023,0.09056565411171766,0.04544861746264186,-0.06944683320440866,0.0009181564522985465,-0.03206719143644781,0.04710119623928022,-0.03278329814430046,0.01776440067519833,0.06793410692106404,0.018607121710028904,0.08760670767238525
65,-0.13298862871457012,0.10334689654886582,-0.006151177281564173,0.006047476583939556,-0.00966750207797111,0.04393060161402483,-0.005293747784523413,0.011660743907301927,-0.01200711589643817,0.007756380964737008,-0.014954474949765593,-0.024967107982597436,0.0017823646952714876,0.03774231248963584,0.023111853189805128,-0.0520032739108569,0.32286941083401244,-0.03129036704350263,0.03149721974314633,-0.03875000480760076,0.012766324992596903,0.0378242230723567,-0.03134293972285513,0.07782589724861885,0.1516822379155003,0.029174563108476378,-0.006636674756826864,0.15530411166640676,-0.0341129115450115,-0.012808856687134619,0.005432879973162722,0.023366138176826173,-0.005099779329751167,-0.048325662007120865,-0.014225746296565447,-0.010482179708044895,0.024988986094485487,0.09055708062707891,0.0500941447565368,0.009694928224540829,-0.010698785420096491,0.01989228950923976,-0.018153942396154636,0.005911617100454349,-0.027918203411436946,0.006577252522616409,0.014596353943419587,-0.003110165854170412,0.09358791761032575,0.05057889299656734,-0.07537374934959366,-0.0005515558365277665,-0.03942490067205747,0.052771063892261154,-0.027191749490730138,0.02162375655714549,0.06635055985166419,0.017809951376040217,0.08537477114640715
66,-0.13296516873744668,0.093523597969691,-0.007779603970953342,0.009056244834603136,-0.010615109970640092,0.040476041381113374,-0.005891150477834583,0.00973772928768217,-0.01191150852285125,0.009355631752151514,-0.04251955894814274,-0.02632448990554398,0.002692128043281134,0.029555198540073876,0.027261131181703674,-0.04973982521405048,0.3225319631309089,-0.023090819692086408,0.03704361601538494,-0.03233521116050124,0.015179589016606009,0.03775565080712698,-0.02617306463469233,0.0789248792752543,0.15446867838648998,0.026442251059039853,-0.001503056673745364,0.15701230942762712,-0.04337910967669345,-0.009666477843718428,0.007501007812310242,0.024591588612172956,-0.005567070040086573,-0.048041111339701986,-0.012093871475521881,-0.01129426669880198,0.029853015845910158,0.09022100093128195,0.04489071543510605,0.011808194427034475,-0.004964179147176298,0.022694545651455154,-0.015433340159737192,0.0052784858452087895,-0.028386488985073156,0.0064063340196649525,0.012616217648288163,-0.0037613292151208793,0.09260108276503834,0.05055045138047297,-0.0737010405703761,0.003050169886842448,-0.03865878256419975,0.05030188194942454,-0.03273591478159491,0.022098394726807035,0.06898919702659044,0.016262180907693533,0.08780044542625061
67,-0.13297831697647608,0.10065528182657221,-0.009214782484274988,0.00999931523522387,-0.010385511884753158,0.04009248935862486,-0.006529034523264641,0.01023466522261325,-0.012520045870244157,0.008485255903755538,-0.020265322396389358,-0.02421995906290161,0.002463092580373989,0.03870960912156449,0.026301247545438985,-0.051137762130195774,0.322256249651712,-0.03197706347372137,0.03287261021373433,-0.036623495729020066,0.01323960282086638,0.03801896810998656,-0.027668025967803767,0.07887868225381928,0.15175866861174103,0.02929916008858441,-0.0041916289178912675,0.15524995714825882,-0.0387273202998059,-0.010478717191376585,0.005733322646373648,0.024707811715151736,-0.005195017976919521,-0.05086618125688972,-0.013803910603975676,-0.011004038339501572,0.023986210239888166,0.087627083456807,0.04773757689115719,0.011747592654825998,-0.007600170223595837,0.020481122903412686,-0.016563354016296154,0.005550726710506316,-0.0290965335788643,0.006576908127039705,0.013251416259471974,-0.0035542411530405404,0.0939536351368416,0.050851820103421985,-0.07415318893725777,0.0005081800703439742,-0.041299627998619484,0.0528188698462412,-0.029837244800418942,0.023384933772324284,0.06837002132427338,0.01696858952698545,0.08711981871556208
68,-0.13404869732006547,0.10508874589171471,-0.009047838365660638,0.00892796940899591,-0.009355387936457318,0.042178045156956466,-0.005549769651424217,0.010971012586846554,-0.011941785286878073,0.008437627133934844,-0.012177954009077663,-0.02619785945668984,0.0020218185676864012,0.03890580155755872,0.025310715756783068,-0.05166675246501104,0.32181359373976226,-0.03265241378550377,0.03149446211818025,-0.03834442405001831,0.012862591695562864,0.03753719504652582,-0.02847051411605802,0.07849154532275042,0.15045029675473803,0.029660958468160553,-0.006360211552319798,0.1538247840523843,-0.03511349350209449,-0.011526552878907987,0.00393478052841525,0.024342311483848342,-0.0064483051516641176,-0.05305844383864835,-0.015089829264834579,-0.010717796015071489,0.025034610283957384,0.08808869052912187,0.05059502430588256,0.01158087459505052,-0.01094513938304786,0.020175879847817806,-0.017982271129755843,0.0057910450848775155,-0.02780339326047157,0.006559126458414194,0.01424267450379871,-0.0030440941492980065,0.09367368253212732,0.05012703524483016,-0.07358951223800567,-0.0007216160693528581,-0.04017909938177796,0.054088183791747325,-0.02765484643779977,0.022816600105731055,0.06646051449242664,0.018823533874006287,0.08537626977529973
69,-0.13442809312054393,0.10525557243598485,-0.008383610507120972,0.008987564640391348,-0.009205896597277259,0.04171349145536141,-0.004924995277344098,0.011052843480674104,-0.01102891071785281,0.008960837556125936,-0.00881192183337335,-0.027091127684954523,0.0020389693164227646,0.03944711528370278,0.025408796087093153,-0.05166316517506877,0.32087811647171705,-0.03323857938074578,0.03156968800762135,-0.039077261586041315,0.012114949962232436,0.037468354992833144,-0.02905081385871609,0.07877883133386446,0.1501273650146733,0.02920882308305774,-0.00793991689960842,0.1537415397621698,-0.03502855138773321,-0.011947634881533943,0.003963959221224441,0.02376786779145275,-0.006858091006545346,-0.05277397689876933,-0.014854172105336514,-0.01112952781319733,0.02440719321240812,0.08823467735831136,0.048377500625737965,0.011650592111674529,-0.01089810546708026,0.02083268820923814,-0.017641630503792045,0.005854417447498985,-0.027190168929891467,0.006261857906079678,0.014536176281024443,-0.0030747987821888494,0.09486705458239661,0.05054780807760801,-0.07446724133883001,-0.0010653581742278754,-0.04095798592796533,0.05535357374051909,-0.02867518075374664,0.0229974120958434,0.06806042878084363,0.019495719673984713,0.08544493060971381
70,-0.1426378860202612,0.11124132075103797,-0.003916476616365127,0.004068027633341936,-0.006729124600430216,0.05295517923587131,-0.00036270350367397446,0.012765177729415444,-0.008941673619612183,0.009406502248907194,0.0003342820287276725,-0.03547341453574941,0.0003486278637570347,0.029795232536218817,0.029168701243428335,-0.051721113087048284,0.3167111159883817,-0.02801136502634164,0.028770617293045548,-0.041108204849030036,0.013682787352911948,0.031735074898119726,-0.03535203639719432,0.07744687276715637,0.1505503487927418,0.028874641449407837,-0.013995065052467533,0.15346347733129923,-0.026122937641105504,-0.016424724984542935,0.002096321678901004,0.023492262567115115,-0.005717393145879603,-0.0507868090340258,-0.01737776998727496,-0.008998556783510173,0.02579742594488904,0.09066125211973759,0.04687876929299066,0.009696632420706997,-0.01783731219096458,0.018192659809254635,-0.020048290828842907,0.008102251136318617,-0.021871328715003403,0.00753931341009432,0.019258810713958623,-0.000301810150675231,0.094792609314574,0.04894113402403829,-0.07187476109564304,-0.004697687061898891,-0.03763118178193152,0.05556166563949347,-0.027817061648940548,0.01991217137017382,0.06642649151104552,0.02367812269463407,0.08341080756671723
71,-0.13722841875881878,0.11124719879677993,-0.006802114659637374,0.005958661477800372,-0.00727766565608252,0.05081777601407894,-0.0026485868245345744,0.011914199946828366,-0.009110253769342169,0.008395048228488258,-0.0006633444547842063,-0.03412569415420001,0.00039900253099963415,0.032736911669721556,0.02685507593032834,-0.05149771683961635,0.31927876132484756,-0.027875564578608562,0.028917712797214837,-0.039747738305215226,0.01273685733919861,0.0332023993945391,-0.033198866232084276,0.07876690185704839,0.15030640713727872,0.029670333102233125,-0.013894269203870303,0.15418091375478155,-0.027841389046158578,-0.014406508445203511,0.0032572519875564295,0.024851662437329985,-0.004686747440444731,-0.05133356559510332,-0.016787302844017794,-0.00969133616425189,0.023146988945391342,0.08789225536430025,0.04705046281549553,0.010605802935718781,-0.015110215056100216,0.018342362275834193,-0.01998735324320847,0.0075496374936289065,-0.024514350750923702,0.007333725730515077,0.018018965662226685,-0.0012517361169792,0.09564536263504285,0.04939492135994175,-0.0771656789593023,-0.0029007523475964967,-0.04013284301015136,0.05477338369993593,-0.027414395954371586,0.02068677412009025,0.06717357243979438,0.022290736706405637,0.0838963804992325
72,-0.13788201230007655,0.11171228441006278,-0.006869493360284399,0.005951951098938958,-0.007562059572198535,0.052536084818013654,-0.0022420325226930153,0.010548667297072994,-0.009172798640977064,0.00798240009020591,0.001640654018418816,-0.034569225218878695,0.0002458937394075297,0.03341799614660088,0.028132253976843748,-0.05142255215804564,0.31862271730732133,-0.026430956969283076,0.027887819349146227,-0.04145977320870925,0.013165362834278823,0.032078155880147785,-0.03335436682157106,0.08011415172898491,0.15168676725762076,0.03044119341951237,-0.011202971672017906,0.15357920819749435,-0.027617704628731685,-0.013990994482305343,0.003101640006035351,0.025509892675396783,-0.004324876160623076,-0.05238256635214822,-0.016732576340992702,-0.00953706843064364,0.021533303444783363,0.087087837813838,0.04617267469528057,0.011080583970687558,-0.01773242714731476,0.018009579152906532,-0.02042022937595835,0.007644795708800709,-0.023817897117086616,0.007909401820689173,0.017906090023507175,-0.0010597442479536633,0.09590992320301595,0.049210809870762255,-0.07754357320995779,-0.0035614591525743597,-0.0397603015241199,0.05320050283511678,-0.027812808115328023,0.02050886724157196,0.06719078882501138,0.0232386003162768,0.08350361555672106
73,-0.14901316915061663,0.10216803372821968,-0.0009959895088797056,0.0011059475810680482,-0.008786446351055183,0.05299015100121576,0.0023200203363022004,0.011163414100934617,-0.01061754994739399,0.00825477611620689,-0.04131901626651201,-0.05088480479322847,-0.0024451578044101404,0.006156444614726609,0.03880355113936279,-0.046355834679952794,0.31255159916161934,0.006805875788754726,0.035330418817236676,-0.035944531570874065,0.019670688761129228,0.022491243114464158,-0.030225798283137224,0.07894187195387094,0.16023185769390064,0.030847627888022353,0.0011276729503324255,0.15782532795616155,-0.030349437716964304,-0.014635597995871115,0.003653244096606738,0.02953836243241451,-0.004346687027653593,-0.04842295403022382,-0.015562140699283343,-0.008894841480694776,0.033410345126910164,0.09353668562502677,0.03594148396793175,0.013955330473600628,-0.018750711882470062,0.022151876564146,-0.0174183163595505,0.009389264662995882,-0.018424723684219473,0.009818331739595365,0.019869309253544427,0.0006821631764722816,0.09299492243579509,0.04229796740986912,-0.07213635133796445,-0.0021078984982614677,-0.03313979166329605,0.05542209280919182,-0.035391471772272726,0.012439539044431812,0.06581103086408795,0.022444953156144577,0.08402579696249214
74,-0.15138336558885615,0.10452076419510258,-0.0007201208271891311,-0.002162625044461921,-0.007755157155570669,0.054844195764999416,0.0032140593862707307,0.009966564649947806,-0.01298600657792815,0.009724840099746107,-0.03646453628318973,-0.05040461644522376,-0.001989600539216782,0.0013543127702622163,0.03782442302479339,-0.045462453878851124,0.3108307377049892,0.0073405981119080655,0.036806592898991894,-0.03707140310267773,0.019404739187418904,0.023405890311007232,-0.02801835975415901,0.07961638235597786,0.16060843967120422,0.02943479174449073,-0.0023774553067845766,0.15833624733155774,-0.02708212104505772,-0.014832385725397954,0.003955180187521094,0.029839438279410598,-0.003946789499659678,-0.0515980561143629,-0.01632195333883265,-0.008627159641228512,0.034376386367678834,0.09527990821483001,0.030045185086073647,0.013740398834525755,-0.018901242871806365,0.024230472343724274,-0.01598689009008742,0.009657415170253926,-0.018230999195062922,0.009497658769879633,0.020499272810118065,0.0007391142378478884,0.09421602754299312,0.04135642210782866,-0.07257948972619904,-0.0028502860240765308,-0.03437958363095925,0.057551410262461904,-0.03366821486345297,0.011269695787887992,0.06525870223232831,0.0226887180025933,0.0843658868236676
75,-0.14935672055279955,0.11430613504344589,0.0005232336824436737,-0.00038495189898554033,-0.006191857608911312,0.059340013250038515,0.004571349728978513,0.01157439041481052,-0.011540499393882029,0.009937914888751873,-0.006476940863152733,-0.04957935910154154,-0.003169263355796244,0.00935066139213634,0.03451436802116924,-0.04794848255638666,0.3125177722255793,-0.004417752579446687,0.030764476348143468,-0.04124217489075311,0.017230417387142538,0.02062802479038251,-0.03241322711215195,0.07912110032936567,0.15620463898832004,0.030268955387379143,-0.01237874731853592,0.15597753220120272,-0.017990662731294165,-0.01879133318261272,0.0032265934136330218,0.027973492260439565,-0.0021218807021535875,-0.0549596256105573,-0.018830031620057676,-0.007188107329978926,0.02948089515561701,0.0951446964002447,0.03391891097036448,0.009763637447133986,-0.02264830889870969,0.021936960507441577,-0.019226126143220546,0.010372306566063345,-0.017440294280120297,0.008944757393965335,0.022934298969073952,0.001434962192406954,0.09691107011372316,0.04364574102423767,-0.07426437124525,-0.007135032142680233,-0.03694731441249413,0.05676799019227607,-0.02751075162199888,0.012111263173819983,0.06155620109376361,0.025350970285730728,0.08184808591424571
76,-0.14991685613888536,0.11518329462695708,0.0008718846205774231,0.0022930856968614286,-0.006152458397861573,0.05913696976792364,0.004217264481671645,0.011159218963640105,-0.012045777064874095,0.009635891896303959,-0.007773943255557385,-0.05191641298291159,-0.003900835055307355,0.009354166669557252,0.03702420517080588,-0.048080750965991445,0.3106482046027338,-0.0050610976307423425,0.030550775747424316,-0.04202400819475533,0.016887094264523908,0.020336580028977196,-0.03446610682752025,0.07886172149530331,0.1559342960723109,0.0314754681663788,-0.011575464033359786,0.1562095472663286,-0.01795518047470841,-0.018764093886051512,0.003855312507904507,0.02725239799052232,-0.001997595890184157,-0.053319470231706335,-0.018599528526933615,-0.0076498991263746,0.030043122124659517,0.09483435064987426,0.032454238082745855,0.0099574880288389,-0.022325652333683606,0.023684590945741105,-0.018989897360220553,0.010409271603355336,-0.016803182428865967,0.008819388446752114,0.023145247128996446,0.0014211546914192938,0.09980202453209114,0.04304896566837043,-0.07553391823559467,-0.00701789545531814,-0.03662421029235646,0.056242933350768194,-0.027378562022431885,0.012174158290446248,0.061713707597898126,0.025447753787495024,0.08178702184603821
77,-0.1481962701141703,0.11629574459660817,0.00020122460780381453,0.002668853901402055,-0.006183522493606256,0.05883204316105704,0.0036717047895630595,0.011189489795826126,-0.011858220936382727,0.009701769144870068,-0.003295275554983562,-0.05039567758281926,-0.004383528561578227,0.011725479849000535,0.03591585071860552,-0.048770946607781626,0.3121218588076306,-0.008358233221664164,0.030230145755092586,-0.04244845171756559,0.01621123353746345,0.02097473201178268,-0.03474131877237541,0.07891845150152135,0.15491246909070128,0.03109204212134911,-0.012040038520726111,0.15571843080330472,-0.018339420775808583,-0.018790005343100442,0.003925094806493222,0.026981417045310957,-0.00170156063259077,-0.05378904134878973,-0.01865595900220701,-0.007660386257202705,0.028976891160060924,0.09435788114156166,0.033258225841954266,0.009477404889898438,-0.0214804631184136,0.02354629802299087,-0.019283055194400038,0.010209566923306051,-0.017630539798405228,0.008571113126380257,0.022924198434751457,0.001135398728554486,0.10021939181312291,0.04332960126922932,-0.07622986230685029,-0.007154880202814343,-0.0374661227828845,0.05590740718861155,-0.026356045296901845,0.013047166639293945,0.06190784413416147,0.025375127981287573,0.08167727280347134
78,-0.1464252068177978,0.11691196622354955,-0.0016493238657712865,0.005862355061166851,-0.006519641235035927,0.0571810309015513,0.0034596305462121723,0.012180410025514633,-0.011616833962660379,0.008356037341333937,0.004695988794975468,-0.053741117606999705,-0.00626113147323407,0.009994424726217801,0.03524618628373329,-0.051770918940975595,0.3159161428443223,-0.013430745406900223,0.02964088175095469,-0.042307477721667194,0.015904160629592993,0.020515143114568576,-0.03433625720647868,0.08045628936963126,0.15318762442125491,0.030857934653437617,-0.011562120041232188,0.15621102818502533,-0.02007739177905936,-0.016258168732604505,0.0024025389201465476,0.028975401589171855,0.0002099143561842871,-0.05997306242361416,-0.019170341290926242,-0.008161399606511573,0.029213761511741074,0.09452868875368574,0.03206444486425053,0.010619190862270459,-0.016420847465680805,0.023917184206070183,-0.019558597754079955,0.008914782434833839,-0.018186430492559236,0.0069134813050740745,0.022361597785875577,-0.00023266852866657208,0.09826567147234506,0.04513324071683367,-0.06838068714171545,-0.008135801939709792,-0.04184030915483176,0.05667311263404817,-0.025737350299306867,0.014537304793943889,0.06333515010490963,0.02389134150953886,0.08321978819405304
79,-0.14440414660394146,0.11820086371957589,3.195554553485778e-05,0.0074113389546826315,-0.005234024392751508,0.06007687917046865,0.005060361253478801,0.01028920188482844,-0.011055865440456935,0.006166088266599255,0.008397671960376935,-0.06009087781169204,-0.005499918758128157,0.005992803137810619,0.03452310465945482,-0.052834036227036814,0.32061250883391706,-0.016933208910365115,0.02889300693198199,-0.04310936507137652,0.016828886646450946,0.020061134725551957,-0.03344697995196438,0.08032711074555651,0.15498947790259748,0.03266539553905537,-0.013107874018793216,0.15847287166082838,-0.023634210211287615,-0.014701788285028586,0.00401735861738993,0.029007193426543478,-0.0015896489189238742,-0.060794542510823175,-0.019087364046620387,-0.009909154736803025,0.02893734617511961,0.09433766929685476,0.028186069745691728,0.011201758905048065,-0.011489101516283823,0.025696786702337018,-0.019707900661959585,0.008566756087802952,-0.01656095251832302,0.007139541081022468,0.020747890435338517,-0.0011911888949604984,0.08364645670508805,0.04441295752626967,-0.0545643002227696,-0.007195227312776287,-0.04315900893669479,0.055822297304488365,-0.025321374869758752,0.013715123750265453,0.06318310583844398,0.022716810871712154,0.08428627682135253
